{"learner":{"attributes":{"best_iteration":"223","best_score":"0.25048790320582587"},"feature_names":["year","unitsFixed","is_ge","instr_hist_mean_gpa","instr_hist_gpa_std","instr_hist_n_sections","course_hist_mean_gpa","course_hist_gpa_std","course_hist_n_sections","ic_hist_mean_gpa","ic_hist_n_sections","dept_hist_mean_gpa","dept_hist_gpa_std","instr_is_cold","course_is_cold","ic_is_cold","years_since_instr_first_taught","rmp_rating","rmp_difficulty","rmp_num_ratings","rmp_would_take_again","course_level","rmp_confidence","quarter","dept"],"feature_types":["int","float","i","float","float","float","float","float","float","float","float","float","float","i","i","i","float","float","float","float","float","c","c","c","c"],"gradient_booster":{"model":{"cats":{"enc":[{"offsets":[],"values":[]},{"offsets":[],"values":[]},{"offsets":[],"values":[]},{"offsets":[],"values":[]},{"offsets":[],"values":[]},{"offsets":[],"values":[]},{"offsets":[],"values":[]},{"offsets":[],"values":[]},{"offsets":[],"values":[]},{"offsets":[],"values":[]},{"offsets":[],"values":[]},{"offsets":[],"values":[]},{"offsets":[],"values":[]},{"offsets":[],"values":[]},{"offsets":[],"values":[]},{"offsets":[],"values":[]},{"offsets":[],"values":[]},{"offsets":[],"values":[]},{"offsets":[],"values":[]},{"offsets":[],"values":[]},{"offsets":[],"values":[]},{"offsets":[0,4,9,14],"values":[103,114,97,100,108,111,119,101,114,117,112,112,101,114]},{"offsets":[0,13,17,31,45],"values":[101,120,97,99,116,95,105,110,105,116,105,97,108,110,111,110,101,111,110,108,121,95,99,97,110,100,105,100,97,116,101,116,111,112,95,98,121,95,114,97,116,105,110,103,115]},{"offsets":[0,4,10,16,22],"values":[70,97,108,108,83,112,114,105,110,103,83,117,109,109,101,114,87,105,110,116,101,114]},{"offsets":[0,4,7,12,18,23,25,30,36,40,42,46,47,49,53,57,62,67,73,78,84,88,93,99,103,108,114,117,121,123,126,130,134,138,141,144,147,152,158,163,169,174,176,180,184,187,192,195,199,204,207,211,214,217,221,226,232,235,239,244,249,253,258,261,265,270,274,276,279,281,284,288,292,295,299,304,310,313,315,319,322,326,329,333,337,340,344],"values":[65,78,84,72,65,82,84,65,82,84,72,73,65,82,84,72,73,87,65,82,84,83,84,65,83,65,83,84,82,79,65,83,84,82,79,87,66,73,79,69,66,76,66,77,83,69,67,67,72,67,72,69,77,67,72,73,78,67,76,65,83,83,67,77,80,83,67,67,77,80,83,67,87,67,78,67,83,80,67,78,67,83,80,87,67,79,77,77,68,65,78,67,69,68,65,78,67,69,87,69,65,67,83,69,65,82,84,72,69,65,82,84,72,87,69,67,69,69,67,79,78,69,68,69,68,83,69,69,77,66,69,78,71,76,69,78,71,82,69,78,86,69,83,77,69,83,83,70,65,77,83,84,70,65,77,83,84,87,70,69,77,83,84,70,69,77,83,84,87,70,76,77,83,84,70,82,71,69,79,71,71,69,79,76,71,69,82,71,76,79,66,76,71,80,83,71,82,65,68,71,82,69,69,75,72,69,66,72,73,83,84,73,78,84,73,81,66,73,84,65,76,74,65,80,65,78,74,65,80,65,78,87,75,79,82,76,65,73,83,76,65,84,73,78,76,65,87,83,79,76,73,78,71,77,65,82,83,67,77,65,84,77,65,84,72,77,65,84,82,76,77,67,68,66,77,69,77,69,83,77,83,77,85,83,80,72,73,76,80,72,89,83,80,79,76,80,79,82,84,80,83,84,65,84,80,83,84,65,84,87,80,83,89,82,71,82,85,83,83,83,72,83,83,76,65,86,83,79,67,83,80,65,78,84,72,84,82,84,77,80,87,82,73,84]}],"feature_segments":[0,0,0,0,0,0,0,0,0,0,0,0,0,0,0,0,0,0,0,0,0,0,3,7,11,97],"sorted_idx":[0,1,2,0,1,2,3,0,1,2,3,0,1,2,3,4,5,6,7,8,9,10,11,12,13,14,15,16,17,18,19,20,21,22,23,24,25,26,27,28,29,30,31,32,33,34,35,36,37,38,39,40,41,42,43,44,45,46,47,48,49,50,51,52,53,54,55,56,57,58,59,60,61,62,63,64,65,66,67,68,69,70,71,72,73,74,75,76,77,78,79,80,81,82,83,84,85]},"gbtree_model_param":{"num_parallel_tree":"1","num_trees":"254"},"iteration_indptr":[0,1,2,3,4,5,6,7,8,9,10,11,12,13,14,15,16,17,18,19,20,21,22,23,24,25,26,27,28,29,30,31,32,33,34,35,36,37,38,39,40,41,42,43,44,45,46,47,48,49,50,51,52,53,54,55,56,57,58,59,60,61,62,63,64,65,66,67,68,69,70,71,72,73,74,75,76,77,78,79,80,81,82,83,84,85,86,87,88,89,90,91,92,93,94,95,96,97,98,99,100,101,102,103,104,105,106,107,108,109,110,111,112,113,114,115,116,117,118,119,120,121,122,123,124,125,126,127,128,129,130,131,132,133,134,135,136,137,138,139,140,141,142,143,144,145,146,147,148,149,150,151,152,153,154,155,156,157,158,159,160,161,162,163,164,165,166,167,168,169,170,171,172,173,174,175,176,177,178,179,180,181,182,183,184,185,186,187,188,189,190,191,192,193,194,195,196,197,198,199,200,201,202,203,204,205,206,207,208,209,210,211,212,213,214,215,216,217,218,219,220,221,222,223,224,225,226,227,228,229,230,231,232,233,234,235,236,237,238,239,240,241,242,243,244,245,246,247,248,249,250,251,252,253,254],"tree_info":[0,0,0,0,0,0,0,0,0,0,0,0,0,0,0,0,0,0,0,0,0,0,0,0,0,0,0,0,0,0,0,0,0,0,0,0,0,0,0,0,0,0,0,0,0,0,0,0,0,0,0,0,0,0,0,0,0,0,0,0,0,0,0,0,0,0,0,0,0,0,0,0,0,0,0,0,0,0,0,0,0,0,0,0,0,0,0,0,0,0,0,0,0,0,0,0,0,0,0,0,0,0,0,0,0,0,0,0,0,0,0,0,0,0,0,0,0,0,0,0,0,0,0,0,0,0,0,0,0,0,0,0,0,0,0,0,0,0,0,0,0,0,0,0,0,0,0,0,0,0,0,0,0,0,0,0,0,0,0,0,0,0,0,0,0,0,0,0,0,0,0,0,0,0,0,0,0,0,0,0,0,0,0,0,0,0,0,0,0,0,0,0,0,0,0,0,0,0,0,0,0,0,0,0,0,0,0,0,0,0,0,0,0,0,0,0,0,0,0,0,0,0,0,0,0,0,0,0,0,0,0,0,0,0,0,0,0,0,0,0,0,0,0,0,0,0,0,0,0,0,0,0,0,0],"trees":[{"base_weights":[1.0605445E-3,-3.4392425E-1,2.3593058E-1,-6.8020666E-1,-2.4629517E-1,9.066481E-2,4.508127E-1,-9.1841745E-1,-5.9403193E-1,-3.8859499E-1,-1.5110967E-1,3.674732E-3,2.0785399E-1,3.5659105E-1,5.094965E-1,-9.3746877E-1,-4.722042E-1,-6.611418E-1,-5.1631063E-1,-4.6090227E-1,-2.420453E-1,-2.0396125E-1,-2.0369453E-2,-3.521569E-2,1.1958432E-1,1.0723192E-1,2.4873954E-1,3.2086486E-1,4.20833E-1,4.799149E-1,5.42998E-1,-1.0097882E0,-8.574969E-1,-5.5758226E-1,-1.5690315E-1,-7.0121837E-1,-5.5330527E-1,-5.5461884E-1,-4.2966998E-1,-6.3237005E-1,-4.119917E-1,-2.8544194E-1,-1.304041E-2,-3.2137582E-1,-1.6285905E-1,-6.8047374E-2,9.2632994E-2,-1.7998755E-1,-2.2326321E-3,9.2268296E-2,2.4064903E-1,5.5415723E-2,1.4627862E-1,2.081131E-1,3.216161E-1,2.7427575E-1,3.4429517E-1,4.0065458E-1,4.818655E-1,4.4724053E-1,4.9713024E-1,5.2030396E-1,2.7610157E-2,-5.3756844E-2,-4.5984335E-2,-4.5663178E-2,-3.3905357E-2,-3.372627E-2,-1.5970487E-2,-2.1369824E-2,4.3445714E-3,-3.425441E-2,-4.2378597E-2,-1.8910183E-2,-2.9712087E-2,-3.0491337E-2,-2.5482316E-2,-2.3817198E-2,-1.2035236E-2,-2.6216751E-2,-3.7834086E-2,-2.262463E-2,-1.5917314E-2,-6.893635E-3,-1.6409716E-2,-4.939925E-3,7.923308E-3,-1.7776707E-2,-1.25295E-2,-1.2621275E-2,-6.2460313E-3,-5.469924E-3,-5.048782E-4,3.0894561E-3,8.950799E-3,-2.0464027E-2,-7.4494006E-3,-9.295918E-4,1.1822616E-2,2.3498005E-5,5.664296E-3,8.150561E-3,1.3173292E-2,1.2513115E-3,5.2498956E-3,6.3048373E-3,1.0853262E-2,5.403315E-3,1.18159335E-2,1.2109098E-2,1.8017983E-2,1.0341073E-2,1.5468567E-2,1.4718507E-2,1.7965252E-2,1.9075109E-2,2.1821743E-2,1.9661985E-2,2.4508677E-2,1.5494133E-2,2.253597E-2,2.2623101E-2,2.5509436E-2,1.40063865E-2,2.6072366E-2],"categories":[],"categories_nodes":[],"categories_segments":[],"categories_sizes":[],"default_left":[0,0,1,0,0,1,0,0,0,0,1,1,0,1,1,0,0,0,0,0,1,0,0,0,1,0,1,0,0,0,0,0,0,0,0,0,0,0,0,0,1,0,0,1,0,0,0,0,1,0,0,0,0,0,0,0,0,0,0,0,0,0,0,0,0,0,0,0,0,0,0,0,0,0,0,0,0,0,0,0,0,0,0,0,0,0,0,0,0,0,0,0,0,0,0,0,0,0,0,0,0,0,0,0,0,0,0,0,0,0,0,0,0,0,0,0,0,0,0,0,0,0,0,0,0],"id":0,"left_children":[1,3,5,7,9,11,13,15,17,19,21,23,25,27,29,31,33,35,37,39,41,43,45,47,49,51,53,55,57,59,61,63,65,67,69,71,73,75,77,79,81,83,85,87,89,91,93,95,97,99,101,103,105,107,109,111,113,115,117,119,121,123,-1,-1,-1,-1,-1,-1,-1,-1,-1,-1,-1,-1,-1,-1,-1,-1,-1,-1,-1,-1,-1,-1,-1,-1,-1,-1,-1,-1,-1,-1,-1,-1,-1,-1,-1,-1,-1,-1,-1,-1,-1,-1,-1,-1,-1,-1,-1,-1,-1,-1,-1,-1,-1,-1,-1,-1,-1,-1,-1,-1,-1,-1,-1],"loss_changes":[4.5661616E3,7.491389E2,1.0464819E3,1.0471338E2,2.3952332E2,2.039252E2,7.450415E1,1.0994629E1,1.9225586E1,7.494812E1,7.323833E1,5.177991E1,3.500125E1,1.1711609E1,7.892334E0,6.494873E0,1.4024124E0,8.220703E0,5.484894E0,3.9437866E1,2.3271133E1,3.633551E1,1.6457949E1,4.1041763E1,9.488525E0,4.959038E0,1.7819061E1,3.49292E0,1.9995422E0,2.1773071E0,4.1955566E-1,2.8096924E0,5.494049E0,9.385252E-1,9.9441487E-1,2.7339478E0,3.6419373E0,2.5864258E0,4.602768E0,1.3590057E1,1.3796753E1,1.2343063E1,5.5252175E0,4.5797577E0,1.8942596E1,5.136569E0,2.3787918E0,1.1220421E1,2.7335005E1,4.536131E0,8.532715E-1,1.5845675E0,1.9440765E0,1.0928406E1,6.5184784E0,2.5476608E0,1.4917297E0,7.1040344E-1,5.318451E-2,5.2111816E-1,1.3603516E0,8.81958E-2,0E0,0E0,0E0,0E0,0E0,0E0,0E0,0E0,0E0,0E0,0E0,0E0,0E0,0E0,0E0,0E0,0E0,0E0,0E0,0E0,0E0,0E0,0E0,0E0,0E0,0E0,0E0,0E0,0E0,0E0,0E0,0E0,0E0,0E0,0E0,0E0,0E0,0E0,0E0,0E0,0E0,0E0,0E0,0E0,0E0,0E0,0E0,0E0,0E0,0E0,0E0,0E0,0E0,0E0,0E0,0E0,0E0,0E0,0E0,0E0,0E0,0E0,0E0],"parents":[2147483647,0,0,1,1,2,2,3,3,4,4,5,5,6,6,7,7,8,8,9,9,10,10,11,11,12,12,13,13,14,14,15,15,16,16,17,17,18,18,19,19,20,20,21,21,22,22,23,23,24,24,25,25,26,26,27,27,28,28,29,29,30,30,31,31,32,32,33,33,34,34,35,35,36,36,37,37,38,38,39,39,40,40,41,41,42,42,43,43,44,44,45,45,46,46,47,47,48,48,49,49,50,50,51,51,52,52,53,53,54,54,55,55,56,56,57,57,58,58,59,59,60,60,61,61],"right_children":[2,4,6,8,10,12,14,16,18,20,22,24,26,28,30,32,34,36,38,40,42,44,46,48,50,52,54,56,58,60,62,64,66,68,70,72,74,76,78,80,82,84,86,88,90,92,94,96,98,100,102,104,106,108,110,112,114,116,118,120,122,124,-1,-1,-1,-1,-1,-1,-1,-1,-1,-1,-1,-1,-1,-1,-1,-1,-1,-1,-1,-1,-1,-1,-1,-1,-1,-1,-1,-1,-1,-1,-1,-1,-1,-1,-1,-1,-1,-1,-1,-1,-1,-1,-1,-1,-1,-1,-1,-1,-1,-1,-1,-1,-1,-1,-1,-1,-1,-1,-1,-1,-1,-1,-1],"split_conditions":[3.3189871E0,2.864516E0,3.6864426E0,2.5227847E0,3.0213735E0,3.483482E0,3.8680556E0,2.9308338E0,2.7474384E0,2.02E3,3.25E0,3.4827883E0,3.5705884E0,3.8E0,3.964706E0,2.7799742E0,5.5156314E-1,3.0917325E0,2.02E3,2.728591E0,3.2222223E0,3.1462054E0,3.425E0,3.1102073E0,3.615E0,3.4579735E0,3.504457E0,3.7333333E0,3.911111E0,4E0,2E0,2.4020076E0,2.02E3,4.1E0,2.5516684E0,5.9052294E-1,4.313385E-1,2.9713626E0,3.2600503E0,3.4E0,3.2512124E0,2.021E3,3.4942358E0,3.0891547E0,3.1355588E0,2.02E3,3.6465294E0,2.6182451E0,3.6636617E0,3.448285E0,3.75E0,3.4285715E0,9.75E0,4E0,3.7125E0,3.5394173E0,3.439036E0,3.8020995E0,3.433642E0,2.1E0,3.9015558E0,1.3E0,2.7610157E-2,-5.3756844E-2,-4.5984335E-2,-4.5663178E-2,-3.3905357E-2,-3.372627E-2,-1.5970487E-2,-2.1369824E-2,4.3445714E-3,-3.425441E-2,-4.2378597E-2,-1.8910183E-2,-2.9712087E-2,-3.0491337E-2,-2.5482316E-2,-2.3817198E-2,-1.2035236E-2,-2.6216751E-2,-3.7834086E-2,-2.262463E-2,-1.5917314E-2,-6.893635E-3,-1.6409716E-2,-4.939925E-3,7.923308E-3,-1.7776707E-2,-1.25295E-2,-1.2621275E-2,-6.2460313E-3,-5.469924E-3,-5.048782E-4,3.0894561E-3,8.950799E-3,-2.0464027E-2,-7.4494006E-3,-9.295918E-4,1.1822616E-2,2.3498005E-5,5.664296E-3,8.150561E-3,1.3173292E-2,1.2513115E-3,5.2498956E-3,6.3048373E-3,1.0853262E-2,5.403315E-3,1.18159335E-2,1.2109098E-2,1.8017983E-2,1.0341073E-2,1.5468567E-2,1.4718507E-2,1.7965252E-2,1.9075109E-2,2.1821743E-2,1.9661985E-2,2.4508677E-2,1.5494133E-2,2.253597E-2,2.2623101E-2,2.5509436E-2,1.40063865E-2,2.6072366E-2],"split_indices":[6,9,6,9,6,3,6,6,9,0,9,6,9,9,9,3,12,3,0,6,9,3,9,3,9,9,11,6,9,8,10,9,0,17,3,12,12,3,3,18,3,0,9,9,9,0,3,3,11,9,16,6,16,5,9,3,3,3,3,17,9,17,0,0,0,0,0,0,0,0,0,0,0,0,0,0,0,0,0,0,0,0,0,0,0,0,0,0,0,0,0,0,0,0,0,0,0,0,0,0,0,0,0,0,0,0,0,0,0,0,0,0,0,0,0,0,0,0,0,0,0,0,0,0,0],"split_type":[0,0,0,0,0,0,0,0,0,0,0,0,0,0,0,0,0,0,0,0,0,0,0,0,0,0,0,0,0,0,0,0,0,0,0,0,0,0,0,0,0,0,0,0,0,0,0,0,0,0,0,0,0,0,0,0,0,0,0,0,0,0,0,0,0,0,0,0,0,0,0,0,0,0,0,0,0,0,0,0,0,0,0,0,0,0,0,0,0,0,0,0,0,0,0,0,0,0,0,0,0,0,0,0,0,0,0,0,0,0,0,0,0,0,0,0,0,0,0,0,0,0,0,0,0],"sum_hessian":[5.6352E4,2.2825E4,3.3527E4,5.134E3,1.7691E4,2.0005E4,1.3522E4,1.361E3,3.773E3,7.089E3,1.0602E4,1.1483E4,8.522E3,5.193E3,8.329E3,1.304E3,5.7E1,2.02E3,1.753E3,4.745E3,2.344E3,7.549E3,3.053E3,8.598E3,2.885E3,2.464E3,6.058E3,3.342E3,1.851E3,4.433E3,3.896E3,6.78E2,6.26E2,4.4E1,1.3E1,1.468E3,5.52E2,1.211E3,5.42E2,1.05E3,3.695E3,1.97E3,3.74E2,1.955E3,5.594E3,2.148E3,9.05E2,1.594E3,7.004E3,2.356E3,5.29E2,1.061E3,1.403E3,3.893E3,2.165E3,1.124E3,2.218E3,1.398E3,4.53E2,1.541E3,2.892E3,1.144E3,2.752E3,3.86E2,2.92E2,4.74E2,1.52E2,2.8E1,1.6E1,6E0,7E0,1.328E3,1.4E2,1.07E2,4.45E2,5.37E2,6.74E2,4.33E2,1.09E2,5.65E2,4.85E2,2.576E3,1.119E3,4.44E2,1.526E3,2.5E2,1.24E2,1.315E3,6.4E2,1.662E3,3.932E3,1.252E3,8.96E2,6.69E2,2.36E2,1.88E2,1.406E3,6.556E3,4.48E2,4.4E2,1.916E3,1.23E2,4.06E2,6.6E2,4.01E2,1.095E3,3.08E2,8.58E2,3.035E3,7.13E2,1.452E3,3.88E2,7.36E2,5.19E2,1.699E3,9.2E2,4.78E2,4.4E1,4.09E2,4.1E1,1.5E3,6.64E2,2.228E3,7E0,1.137E3],"tree_param":{"num_deleted":"0","num_feature":"25","num_nodes":"125","size_leaf_vector":"1"}},{"base_weights":[-5.092406E-4,-3.3533838E-1,2.1762604E-1,-6.476594E-1,-2.419791E-1,7.815452E-2,4.256144E-1,-8.730787E-1,-5.638733E-1,-3.183276E-1,-8.617318E-2,-1.5792912E-2,1.7927194E-1,3.3553216E-1,4.841604E-1,-8.9500314E-1,-4.1455978E-1,-6.399293E-1,-5.0219625E-1,-4.2398086E-1,-2.3348628E-1,-1.3183716E-1,5.5481862E-2,1.00146994E-1,-6.797585E-2,8.8346794E-2,2.2346531E-1,3.0301267E-1,4.0069136E-1,4.5454222E-1,5.1378053E-1,-6.66137E-1,-9.194643E-1,-5.6436527E-1,-2.4916162E-1,-6.994353E-1,-5.70202E-1,-2.7360633E-1,-5.194469E-1,-5.6641746E-1,-3.770214E-1,-3.4473926E-1,-1.807373E-1,-1.8511802E-1,-8.865056E-2,1.03180274E-1,-2.680899E-2,2.9679176E-1,6.770949E-2,-1.4861716E-1,7.904474E-3,3.0113906E-2,1.2362378E-1,2.562326E-1,1.2659828E-1,3.4491348E-1,2.7191374E-1,4.1328233E-1,3.081985E-1,4.7250524E-1,4.057533E-1,4.9244326E-1,2.6219238E-2,-2.126929E-2,-3.6775798E-2,-5.2709576E-2,-4.416516E-2,-3.148423E-2,-1.3451586E-2,-1.9961428E-2,2.3640906E-4,-3.336116E-2,-3.9156552E-2,-2.7956942E-2,-3.598815E-2,-1.5617224E-2,2.8416973E-3,-2.8266875E-2,-2.1441719E-2,-3.2667704E-2,-2.0457482E-2,-2.0826595E-2,-1.4277123E-2,-1.4723229E-2,-2.0086091E-2,-1.25531275E-2,-6.075894E-3,-7.892744E-3,-1.3114611E-2,-6.403467E-3,-1.8571953E-3,2.575988E-3,1.1160247E-2,-4.394395E-3,1.0016438E-3,-4.4903997E-4,1.7395E-2,4.4498025E-3,-6.279242E-3,-7.919673E-3,2.531004E-2,-5.549078E-4,7.3576155E-3,-7.826386E-4,4.758261E-3,5.2008526E-3,9.398119E-3,9.76267E-3,1.4566596E-2,3.741615E-3,1.0094661E-2,1.5641699E-2,1.8634332E-2,1.1366825E-2,1.5383564E-2,2.0067962E-2,2.4008652E-2,1.1774075E-2,1.746369E-2,2.2495221E-2,2.4298994E-2,2.1338237E-2,1.7011425E-2,2.5586803E-2,2.2840371E-2],"categories":[0,2,3,4,5,6,7,9,11,13,14,15,17,19,20,22,23,24,25,29,30,31,33,35,36,37,39,40,41,42,43,46,47,50,52,53,54,55,56,57,59,60,61,63,67,68,70,72,73,75,76,77,78,79,80,81,82,85,0,2,9,13,20,27,30,35,36,40,42,50,63,65,69,70,71,72,74,76,82,0,2,4,5,6,9,12,13,15,16,20,22,24,26,27,30,33,36,40,41,42,45,50,53,62,63,65,66,70,71,72,74,76,77,81,82,85,0,2,3,4,6,7,8,10,13,14,17,18,19,22,23,25,27,28,29,31,32,34,36,37,40,41,42,43,44,46,47,48,49,51,52,53,54,55,56,57,58,59,61,62,64,65,67,68,70,71,72,73,74,75,77,78,79,80,81,83,84,0,1,2,3,4,5,6,7,9,10,11,12,13,14,15,16,17,18,19,20,22,23,24,25,26,27,29,30,31,32,33,35,36,37,38,39,40,41,42,43,44,45,46,47,48,50,52,53,54,55,56,57,59,60,61,62,63,65,66,67,68,69,70,71,72,73,74,75,76,77,78,79,80,81,82,83,84,85,2,3,4,5,6,7,9,11,12,13,14,15,17,19,20,22,23,25,31,35,37,39,40,41,43,46,47,50,52,53,54,55,56,57,59,61,67,70,71,72,75,81,0,1,2,3,4,5,6,7,8,9,10,11,12,13,14,15,17,18,19,20,21,22,23,24,25,27,28,29,30,31,32,33,35,36,37,39,40,41,43,45,46,47,50,52,53,54,55,56,57,58,59,61,65,66,67,68,70,71,72,73,74,75,77,78,80,82,84,85,0,3,4,6,7,8,9,10,12,13,14,15,17,19,22,23,24,25,29,32,35,37,38,39,41,43,46,47,48,50,52,53,54,55,56,57,58,59,61,67,70,72,73,75,76,78,79,80,81,84,1,3,4,5,6,7,8,9,10,11,12,14,17,19,20,22,23,25,26,29,32,33,36,37,39,40,41,43,44,45,46,47,48,49,52,53,54,55,56,57,58,59,61,63,64,66,67,70,71,72,73,75,77,78,79,80,82,83,84,0,1,2,3,4,5,6,7,8,9,10,11,12,13,63,13,35,36,42,70,76,82,11,13,16,20,23,26,33,35,36,40,45,50,58,65,70,71,72,74,82,0,2,9,13,14,24,36,42,72,73,74,82,0,2,3,4,5,6,7,8,9,11,13,14,15,16,17,19,21,22,23,25,26,29,31,32,33,35,36,37,38,39,40,41,42,43,44,46,47,48,49,50,52,53,54,55,56,57,58,59,60,61,66,67,70,71,73,74,75,77,78,79,80,81,82,83,84,85],"categories_nodes":[11,15,18,22,23,26,27,28,29,34,35,41,43,49,61],"categories_segments":[0,58,79,116,177,255,297,365,415,474,489,496,515,527,528],"categories_sizes":[58,21,37,61,78,42,68,50,59,15,7,19,12,1,65],"default_left":[0,0,1,0,1,1,0,0,0,0,0,1,0,1,1,1,0,0,1,0,0,0,1,0,1,0,1,0,1,1,0,0,0,0,1,1,1,0,0,1,0,1,0,1,0,0,0,0,0,1,1,0,0,0,1,0,0,0,0,0,0,0,0,0,0,0,0,0,0,0,0,0,0,0,0,0,0,0,0,0,0,0,0,0,0,0,0,0,0,0,0,0,0,0,0,0,0,0,0,0,0,0,0,0,0,0,0,0,0,0,0,0,0,0,0,0,0,0,0,0,0,0,0,0,0],"id":1,"left_children":[1,3,5,7,9,11,13,15,17,19,21,23,25,27,29,31,33,35,37,39,41,43,45,47,49,51,53,55,57,59,61,63,65,67,69,71,73,75,77,79,81,83,85,87,89,91,93,95,97,99,101,103,105,107,109,111,113,115,117,119,121,123,-1,-1,-1,-1,-1,-1,-1,-1,-1,-1,-1,-1,-1,-1,-1,-1,-1,-1,-1,-1,-1,-1,-1,-1,-1,-1,-1,-1,-1,-1,-1,-1,-1,-1,-1,-1,-1,-1,-1,-1,-1,-1,-1,-1,-1,-1,-1,-1,-1,-1,-1,-1,-1,-1,-1,-1,-1,-1,-1,-1,-1,-1,-1],"loss_changes":[4.10139E3,6.456638E2,9.8626184E2,9.56311E1,2.0282257E2,1.9338599E2,7.173462E1,1.336084E1,1.7009888E1,1.0243457E2,3.6309887E1,6.384408E1,3.934442E1,1.120813E1,6.92395E0,6.5906982E0,1.3885698E0,6.365967E0,7.897888E0,3.3777954E1,3.7155853E1,9.721733E0,5.379999E0,2.083358E1,4.4549988E1,6.5730915E0,2.0865417E1,4.5278015E0,1.8815918E0,3.3530884E0,5.7336426E-1,1.7591324E0,4.6483765E0,3.7732697E-1,1.2986529E0,1.7346191E0,7.453766E-1,1.9249983E0,7.612915E0,1.6867249E1,1.3675537E1,5.6591034E0,1.788591E1,3.909996E0,4.743906E0,5.336894E0,1.4447932E0,7.2725487E0,1.1581802E1,2.263694E1,9.93802E0,3.6207635E0,2.4704037E0,1.0439819E1,6.466406E0,1.1744385E0,3.1744843E0,9.70459E-1,5.1340294E-1,6.0809326E-1,1.325592E0,6.2435913E-1,0E0,0E0,0E0,0E0,0E0,0E0,0E0,0E0,0E0,0E0,0E0,0E0,0E0,0E0,0E0,0E0,0E0,0E0,0E0,0E0,0E0,0E0,0E0,0E0,0E0,0E0,0E0,0E0,0E0,0E0,0E0,0E0,0E0,0E0,0E0,0E0,0E0,0E0,0E0,0E0,0E0,0E0,0E0,0E0,0E0,0E0,0E0,0E0,0E0,0E0,0E0,0E0,0E0,0E0,0E0,0E0,0E0,0E0,0E0,0E0,0E0,0E0,0E0],"parents":[2147483647,0,0,1,1,2,2,3,3,4,4,5,5,6,6,7,7,8,8,9,9,10,10,11,11,12,12,13,13,14,14,15,15,16,16,17,17,18,18,19,19,20,20,21,21,22,22,23,23,24,24,25,25,26,26,27,27,28,28,29,29,30,30,31,31,32,32,33,33,34,34,35,35,36,36,37,37,38,38,39,39,40,40,41,41,42,42,43,43,44,44,45,45,46,46,47,47,48,48,49,49,50,50,51,51,52,52,53,53,54,54,55,55,56,56,57,57,58,58,59,59,60,60,61,61],"right_children":[2,4,6,8,10,12,14,16,18,20,22,24,26,28,30,32,34,36,38,40,42,44,46,48,50,52,54,56,58,60,62,64,66,68,70,72,74,76,78,80,82,84,86,88,90,92,94,96,98,100,102,104,106,108,110,112,114,116,118,120,122,124,-1,-1,-1,-1,-1,-1,-1,-1,-1,-1,-1,-1,-1,-1,-1,-1,-1,-1,-1,-1,-1,-1,-1,-1,-1,-1,-1,-1,-1,-1,-1,-1,-1,-1,-1,-1,-1,-1,-1,-1,-1,-1,-1,-1,-1,-1,-1,-1,-1,-1,-1,-1,-1,-1,-1,-1,-1,-1,-1,-1,-1,-1,-1],"split_conditions":[3.3069887E0,2.864516E0,3.6807256E0,2.5227847E0,3.1355588E0,3.439036E0,3.8680556E0,2.9145615E0,2.9153922E0,2.9759057E0,3.382901E0,1E-45,3.5705884E0,3.804181E0,3.9577777E0,1E-45,2.019E3,2.713238E0,1E-45,2.728591E0,3.1462054E0,3.3074422E0,1E-45,1E-45,3.1917906E0,3.4333334E0,1E-45,1E-45,1E-45,1E-45,5E0,2.1E1,2.267318E0,3.090606E0,1E-45,1E-45,4.2E0,8E0,2.02E3,3.0917325E0,2.02E3,1E-45,3.1355588E0,1E-45,2.02E3,3.6041667E0,2.02E3,3.58E0,5.646245E-1,1E-45,3.531649E0,2.02E3,9.75E0,3.6196625E0,3.4519491E0,3.7636364E0,3.5906904E0,3.961857E0,3E0,3.9238095E0,2.3738585E-1,1E-45,2.6219238E-2,-2.126929E-2,-3.6775798E-2,-5.2709576E-2,-4.416516E-2,-3.148423E-2,-1.3451586E-2,-1.9961428E-2,2.3640906E-4,-3.336116E-2,-3.9156552E-2,-2.7956942E-2,-3.598815E-2,-1.5617224E-2,2.8416973E-3,-2.8266875E-2,-2.1441719E-2,-3.2667704E-2,-2.0457482E-2,-2.0826595E-2,-1.4277123E-2,-1.4723229E-2,-2.0086091E-2,-1.25531275E-2,-6.075894E-3,-7.892744E-3,-1.3114611E-2,-6.403467E-3,-1.8571953E-3,2.575988E-3,1.1160247E-2,-4.394395E-3,1.0016438E-3,-4.4903997E-4,1.7395E-2,4.4498025E-3,-6.279242E-3,-7.919673E-3,2.531004E-2,-5.549078E-4,7.3576155E-3,-7.826386E-4,4.758261E-3,5.2008526E-3,9.398119E-3,9.76267E-3,1.4566596E-2,3.741615E-3,1.0094661E-2,1.5641699E-2,1.8634332E-2,1.1366825E-2,1.5383564E-2,2.0067962E-2,2.4008652E-2,1.1774075E-2,1.746369E-2,2.2495221E-2,2.4298994E-2,2.1338237E-2,1.7011425E-2,2.5586803E-2,2.2840371E-2],"split_indices":[6,9,6,9,9,3,6,6,3,6,9,24,9,9,9,24,0,9,24,6,3,3,24,24,3,9,24,24,24,24,8,19,9,6,24,24,18,10,0,3,0,24,9,24,0,9,0,9,12,21,9,0,16,3,6,6,3,9,8,6,7,24,0,0,0,0,0,0,0,0,0,0,0,0,0,0,0,0,0,0,0,0,0,0,0,0,0,0,0,0,0,0,0,0,0,0,0,0,0,0,0,0,0,0,0,0,0,0,0,0,0,0,0,0,0,0,0,0,0,0,0,0,0,0,0],"split_type":[0,0,0,0,0,0,0,0,0,0,0,1,0,0,0,1,0,0,1,0,0,0,1,1,0,0,1,1,1,1,0,0,0,0,1,1,0,0,0,0,0,1,0,1,0,0,0,0,0,1,0,0,0,0,0,0,0,0,0,0,0,1,0,0,0,0,0,0,0,0,0,0,0,0,0,0,0,0,0,0,0,0,0,0,0,0,0,0,0,0,0,0,0,0,0,0,0,0,0,0,0,0,0,0,0,0,0,0,0,0,0,0,0,0,0,0,0,0,0,0,0,0,0,0,0],"sum_hessian":[5.6152E4,2.2151E4,3.4001E4,5.096E3,1.7055E4,2.0354E4,1.3647E4,1.378E3,3.718E3,1.1445E4,5.61E3,1.0551E4,9.803E3,5.379E3,8.268E3,1.314E3,6.4E1,1.66E3,2.058E3,5.095E3,6.35E3,4.243E3,1.367E3,3.274E3,7.277E3,3.208E3,6.595E3,3.593E3,1.786E3,4.144E3,4.124E3,1.3E2,1.184E3,3.2E1,3.2E1,8.9E2,7.7E2,1.46E2,1.912E3,1.26E3,3.835E3,2.04E3,4.31E3,1.897E3,2.346E3,8.66E2,5.01E2,4.62E2,2.812E3,3.528E3,3.749E3,1.212E3,1.996E3,4.926E3,1.669E3,1.525E3,2.068E3,1.568E3,2.18E2,3.021E3,1.123E3,1.388E3,2.736E3,3.1E1,9.9E1,2.44E2,9.4E2,2.5E1,7E0,2E1,1.2E1,6.5E2,2.4E2,7.22E2,4.8E1,1.31E2,1.5E1,1.265E3,6.47E2,8.09E2,4.51E2,2.675E3,1.16E3,1.088E3,9.52E2,1.968E3,2.342E3,1.405E3,4.92E2,1.327E3,1.019E3,6.07E2,2.59E2,2.18E2,2.83E2,6.6E1,3.96E2,2.534E3,2.78E2,3.477E3,5.1E1,3.299E3,4.5E2,7.11E2,5.01E2,1.533E3,4.63E2,1.803E3,3.123E3,9.91E2,6.78E2,7.15E2,8.1E2,9.25E2,1.143E3,1.338E3,2.3E2,8.2E1,1.36E2,1.144E3,1.877E3,8.45E2,2.78E2,8.9E2,4.98E2],"tree_param":{"num_deleted":"0","num_feature":"25","num_nodes":"125","size_leaf_vector":"1"}},{"base_weights":[-3.4189082E-4,-3.3559465E-1,1.9634965E-1,-5.725106E-1,-2.2707242E-1,5.8066543E-2,3.9069113E-1,-6.862034E-1,-4.475901E-1,-3.6541376E-1,-1.6432568E-1,-2.7577706E-2,1.6023336E-1,2.965139E-1,4.5395786E-1,-8.227806E-1,-6.112954E-1,-3.1324276E-1,-5.148236E-1,-4.323401E-1,-3.164863E-1,-2.4958913E-1,-1.0534875E-1,9.576631E-2,-7.0888326E-2,1.04774624E-1,2.246811E-1,2.4217969E-1,3.3352378E-1,4.0815398E-1,4.7277918E-1,-7.712227E-1,-9.2210907E-1,-7.277484E-1,-5.7162625E-1,-1.9354492E-1,-4.3824294E-1,-6.738166E-1,-4.804541E-1,-3.9940244E-1,-5.0423074E-1,-2.4374287E-1,-3.5592276E-1,-2.915479E-1,-1.5141843E-1,-1.3919589E-1,-2.2850022E-2,-4.9145993E-2,1.4013307E-1,-1.2974966E-1,8.058605E-3,5.2371077E-2,1.4710946E-1,2.6343122E-1,1.3819027E-1,2.1537943E-1,3.054115E-1,3.029814E-1,3.706141E-1,4.2053443E-1,2.9677507E-1,4.8335344E-1,4.2720857E-1,-3.9955154E-2,-2.9478062E-2,-4.3268066E-2,-5.0596196E-2,-3.1193003E-2,-3.9866615E-2,-2.718391E-2,-3.516263E-2,-1.5705721E-2,-3.7721184E-3,-2.3277907E-2,-1.1220412E-2,-2.07877E-2,-3.732558E-2,-1.9878734E-2,-2.5836116E-2,-2.1287134E-2,-1.536527E-2,-2.0030644E-2,-2.7489185E-2,-1.4029073E-2,-5.4240744E-3,-1.5395462E-2,-2.0610033E-2,-1.0010923E-2,-1.5949478E-2,-5.0271056E-3,-1.5747355E-2,-4.817559E-3,-9.887702E-3,3.138195E-3,-4.52679E-3,-1.4312704E-2,-1.435771E-3,1.4921206E-2,4.8872456E-3,-8.376687E-3,-1.4911857E-3,-1.6207679E-3,2.703247E-3,5.314904E-3,-7.333373E-5,3.3070461E-3,8.753991E-3,1.1643019E-2,1.830018E-2,-8.890475E-4,7.929084E-3,1.1729617E-2,4.903792E-3,1.240278E-2,1.6938204E-2,1.6551208E-2,1.2367553E-2,1.7317368E-2,1.9903524E-2,2.208468E-2,1.9890424E-2,1.7538542E-2,7.5401464E-3,2.3099825E-2,2.467936E-2,1.6763177E-2,2.1881534E-2],"categories":[0,2,3,4,5,6,7,9,11,12,13,14,15,17,19,20,22,23,24,25,29,30,31,33,35,36,37,39,40,41,42,43,45,46,47,50,52,53,54,55,56,57,59,60,61,63,67,70,72,73,75,76,77,78,79,80,81,82,85,9,13,42,69,76,82,1,13,15,24,26,27,30,36,40,65,70,71,72,76,82,2,9,20,33,35,36,42,50,70,74,82,0,1,2,15,16,23,24,26,31,33,35,36,40,42,45,46,50,53,58,63,65,70,71,72,74,81,82,85,0,2,3,4,5,6,7,9,10,11,13,14,15,16,17,19,20,22,23,24,25,26,27,30,31,35,37,39,40,41,43,46,47,48,50,52,53,54,55,56,57,58,59,61,65,67,70,71,75,76,79,80,81,1,3,4,5,6,7,8,10,14,17,19,20,22,23,25,29,30,37,38,39,40,43,45,46,47,48,49,52,53,54,55,56,57,59,61,67,70,71,72,73,75,76,78,79,80,82,84,2,3,4,5,6,7,8,9,11,12,14,15,17,19,22,23,25,26,29,31,32,37,38,39,40,41,43,44,46,47,48,49,52,53,55,56,57,58,59,61,63,64,66,67,70,71,72,73,74,75,77,78,79,80,82,83,84,85,9,13,36,42,63,70,72,74,76,82,2,13,26,27,30,63,65,76,2,12,13,15,16,24,26,33,40,42,63,65,71,72,74,75,76,82,2,12,13,15,20,21,24,26,27,30,36,40,42,45,50,53,54,63,64,65,70,71,72,74,76,81,82,0,1,2,3,4,5,6,7,9,11,12,13,14,15,16,17,19,20,22,23,24,25,26,27,29,30,31,32,33,35,36,37,38,39,40,41,42,43,44,45,46,47,48,50,52,53,54,55,56,57,58,59,60,61,62,63,65,66,67,69,70,71,72,73,74,75,76,77,78,79,80,81,82,83,84,85,3,5,6,7,8,9,10,11,13,15,16,17,18,19,20,21,22,23,24,25,26,27,28,29,31,34,37,39,41,42,43,45,46,47,48,49,50,51,52,53,55,56,57,59,60,61,62,64,67,68,69,70,71,72,73,74,75,76,77,78,79,81,83,84,3,5,6,7,8,9,10,11,17,19,22,23,25,29,35,36,37,38,39,40,41,43,44,45,46,47,48,50,52,54,55,56,57,59,61,62,67,68,70,73,75,79,80,81,82,1,2,3,4,5,6,7,8,9,10,12,13,14,15,17,18,19,21,22,23,24,25,28,29,30,32,33,35,36,37,39,43,44,46,47,52,53,54,55,56,57,58,59,61,67,68,71,73,74,75,78,79,80,1,2,3,4,5,6,7,8,9,10,11,12,14,16,17,19,20,21,22,23,25,26,29,30,32,33,35,36,37,38,39,40,41,42,43,44,45,46,47,48,49,51,52,53,54,55,56,57,58,59,61,62,63,64,66,67,70,71,72,73,74,75,76,78,79,80,81,82,83,84,85],"categories_nodes":[11,15,17,19,20,26,29,30,33,37,38,43,48,51,55,57,59],"categories_segments":[0,59,65,80,91,119,172,219,277,287,295,313,340,416,480,525,578],"categories_sizes":[59,6,15,11,28,53,47,58,10,8,18,27,76,64,45,53,71],"default_left":[0,0,1,0,0,1,0,0,0,0,0,1,0,0,0,1,0,1,0,1,1,1,1,0,1,0,1,1,1,1,1,0,0,1,1,0,1,1,1,0,0,1,1,1,1,1,1,0,0,1,0,0,0,0,0,1,1,1,0,0,0,0,1,0,0,0,0,0,0,0,0,0,0,0,0,0,0,0,0,0,0,0,0,0,0,0,0,0,0,0,0,0,0,0,0,0,0,0,0,0,0,0,0,0,0,0,0,0,0,0,0,0,0,0,0,0,0,0,0,0,0,0,0,0,0,0,0],"id":2,"left_children":[1,3,5,7,9,11,13,15,17,19,21,23,25,27,29,31,33,35,37,39,41,43,45,47,49,51,53,55,57,59,61,63,65,67,69,71,73,75,77,79,81,83,85,87,89,91,93,95,97,99,101,103,105,107,109,111,113,115,117,119,121,123,125,-1,-1,-1,-1,-1,-1,-1,-1,-1,-1,-1,-1,-1,-1,-1,-1,-1,-1,-1,-1,-1,-1,-1,-1,-1,-1,-1,-1,-1,-1,-1,-1,-1,-1,-1,-1,-1,-1,-1,-1,-1,-1,-1,-1,-1,-1,-1,-1,-1,-1,-1,-1,-1,-1,-1,-1,-1,-1,-1,-1,-1,-1,-1,-1],"loss_changes":[3.711327E3,5.3485425E2,9.5318506E2,9.242163E1,1.2380066E2,1.813702E2,8.765137E1,3.4342773E1,2.7919678E1,1.4369812E1,4.9333954E1,6.023654E1,3.3726776E1,1.1784241E1,7.320801E0,5.305847E0,9.677185E0,1.5457626E1,1.0905212E1,4.1528015E0,7.2460327E0,1.6449814E1,1.6201347E1,1.8853804E1,3.879642E1,1.1248951E1,1.4569626E1,3.9611053E0,3.8113098E0,3.356964E0,2.710205E0,3.4519653E0,1.0109863E0,3.394226E0,5.5849E0,7.5555115E0,2.7995758E0,6.439514E0,4.8461914E0,2.932495E0,2.445984E0,4.4650383E0,4.3081665E0,6.9292297E0,9.95207E0,1.0283218E1,9.813336E0,3.2882857E0,1.4987701E1,1.8030228E1,6.6421566E0,6.612762E0,6.3281593E0,9.31221E0,4.326439E0,3.7638245E0,1.2212296E0,2.8851929E0,8.4373474E-1,8.540039E-1,1.961998E0,7.817383E-1,9.1249084E-1,0E0,0E0,0E0,0E0,0E0,0E0,0E0,0E0,0E0,0E0,0E0,0E0,0E0,0E0,0E0,0E0,0E0,0E0,0E0,0E0,0E0,0E0,0E0,0E0,0E0,0E0,0E0,0E0,0E0,0E0,0E0,0E0,0E0,0E0,0E0,0E0,0E0,0E0,0E0,0E0,0E0,0E0,0E0,0E0,0E0,0E0,0E0,0E0,0E0,0E0,0E0,0E0,0E0,0E0,0E0,0E0,0E0,0E0,0E0,0E0,0E0,0E0,0E0,0E0],"parents":[2147483647,0,0,1,1,2,2,3,3,4,4,5,5,6,6,7,7,8,8,9,9,10,10,11,11,12,12,13,13,14,14,15,15,16,16,17,17,18,18,19,19,20,20,21,21,22,22,23,23,24,24,25,25,26,26,27,27,28,28,29,29,30,30,31,31,32,32,33,33,34,34,35,35,36,36,37,37,38,38,39,39,40,40,41,41,42,42,43,43,44,44,45,45,46,46,47,47,48,48,49,49,50,50,51,51,52,52,53,53,54,54,55,55,56,56,57,57,58,58,59,59,60,60,61,61,62,62],"right_children":[2,4,6,8,10,12,14,16,18,20,22,24,26,28,30,32,34,36,38,40,42,44,46,48,50,52,54,56,58,60,62,64,66,68,70,72,74,76,78,80,82,84,86,88,90,92,94,96,98,100,102,104,106,108,110,112,114,116,118,120,122,124,126,-1,-1,-1,-1,-1,-1,-1,-1,-1,-1,-1,-1,-1,-1,-1,-1,-1,-1,-1,-1,-1,-1,-1,-1,-1,-1,-1,-1,-1,-1,-1,-1,-1,-1,-1,-1,-1,-1,-1,-1,-1,-1,-1,-1,-1,-1,-1,-1,-1,-1,-1,-1,-1,-1,-1,-1,-1,-1,-1,-1,-1,-1,-1,-1],"split_conditions":[3.2712784E0,2.8452322E0,3.6427767E0,3.0338888E0,3.1462054E0,3.439036E0,3.8495648E0,2.5862887E0,4.3246266E-1,2.9636433E0,3.0655556E0,1E-45,3.6196625E0,3.725269E0,3.9238095E0,1E-45,2.6903079E0,1E-45,2.5436988E0,1E-45,1E-45,3.0366468E-1,3.47438E0,3.446705E0,3.2512124E0,3.4827883E0,1E-45,3.702381E0,3.6943514E0,1E-45,1E-45,9.75E0,4.1E0,1E-45,4.9341768E-1,3.311663E0,3.678245E-1,1E-45,1E-45,3.101701E0,2.2344014E-1,2.9043192E-1,3.2E0,1E-45,3.5E0,3E0,2.8708163E-1,2.994805E0,1E-45,3.3625E0,3.472922E0,1E-45,2.25E0,3.8431382E0,5E-1,1E-45,1.3780677E-1,1E-45,3.8E0,1E-45,2.5868326E-1,5E0,3.0917325E0,-3.9955154E-2,-2.9478062E-2,-4.3268066E-2,-5.0596196E-2,-3.1193003E-2,-3.9866615E-2,-2.718391E-2,-3.516263E-2,-1.5705721E-2,-3.7721184E-3,-2.3277907E-2,-1.1220412E-2,-2.07877E-2,-3.732558E-2,-1.9878734E-2,-2.5836116E-2,-2.1287134E-2,-1.536527E-2,-2.0030644E-2,-2.7489185E-2,-1.4029073E-2,-5.4240744E-3,-1.5395462E-2,-2.0610033E-2,-1.0010923E-2,-1.5949478E-2,-5.0271056E-3,-1.5747355E-2,-4.817559E-3,-9.887702E-3,3.138195E-3,-4.52679E-3,-1.4312704E-2,-1.435771E-3,1.4921206E-2,4.8872456E-3,-8.376687E-3,-1.4911857E-3,-1.6207679E-3,2.703247E-3,5.314904E-3,-7.333373E-5,3.3070461E-3,8.753991E-3,1.1643019E-2,1.830018E-2,-8.890475E-4,7.929084E-3,1.1729617E-2,4.903792E-3,1.240278E-2,1.6938204E-2,1.6551208E-2,1.2367553E-2,1.7317368E-2,1.9903524E-2,2.208468E-2,1.9890424E-2,1.7538542E-2,7.5401464E-3,2.3099825E-2,2.467936E-2,1.6763177E-2,2.1881534E-2],"split_indices":[6,6,6,3,3,3,6,6,4,3,6,24,3,6,6,24,3,24,6,24,24,7,3,6,3,6,24,3,3,24,24,16,18,24,4,3,7,24,24,6,7,7,18,24,18,18,4,3,24,6,6,24,16,3,16,24,7,24,6,24,7,8,3,0,0,0,0,0,0,0,0,0,0,0,0,0,0,0,0,0,0,0,0,0,0,0,0,0,0,0,0,0,0,0,0,0,0,0,0,0,0,0,0,0,0,0,0,0,0,0,0,0,0,0,0,0,0,0,0,0,0,0,0,0,0,0,0],"split_type":[0,0,0,0,0,0,0,0,0,0,0,1,0,0,0,1,0,1,0,1,1,0,0,0,0,0,1,0,0,1,1,0,0,1,0,0,0,1,1,0,0,0,0,1,0,0,0,0,1,0,0,1,0,0,0,1,0,1,0,1,0,0,0,0,0,0,0,0,0,0,0,0,0,0,0,0,0,0,0,0,0,0,0,0,0,0,0,0,0,0,0,0,0,0,0,0,0,0,0,0,0,0,0,0,0,0,0,0,0,0,0,0,0,0,0,0,0,0,0,0,0,0,0,0,0,0,0],"sum_hessian":[5.628E4,2.081E4,3.547E4,6.536E3,1.4274E4,2.0725E4,1.4745E4,3.419E3,3.117E3,4.452E3,9.822E3,1.1274E4,9.451E3,5.928E3,8.817E3,1.207E3,2.212E3,1.042E3,2.075E3,1.876E3,2.576E3,4.014E3,5.808E3,2.929E3,8.345E3,5.082E3,4.369E3,2.406E3,3.522E3,2.576E3,6.241E3,8.01E2,4.06E2,5.57E2,1.655E3,5.34E2,5.08E2,3.65E2,1.71E3,1.292E3,5.84E2,9.09E2,1.667E3,2.81E3,1.204E3,4.117E3,1.691E3,6.86E2,2.243E3,4.781E3,3.564E3,2.273E3,2.809E3,3.015E3,1.354E3,1.694E3,7.12E2,1.938E3,1.584E3,2.315E3,2.61E2,5.056E3,1.185E3,6.91E2,1.1E2,2.56E2,1.5E2,2.28E2,3.29E2,1.37E3,2.85E2,2.63E2,2.71E2,4.49E2,5.9E1,8.2E1,2.83E2,5.25E2,1.185E3,1.001E3,2.91E2,1.82E2,4.02E2,7.13E2,1.96E2,9.04E2,7.63E2,6.52E2,2.158E3,9.2E2,2.84E2,2.38E3,1.737E3,7.46E2,9.45E2,5.3E1,6.33E2,4.72E2,1.771E3,3.468E3,1.313E3,1.895E3,1.669E3,1.136E3,1.137E3,7.23E2,2.086E3,2.326E3,6.89E2,1.56E2,1.198E3,1.454E3,2.4E2,2.66E2,4.46E2,1.284E3,6.54E2,8.5E2,7.34E2,1.187E3,1.128E3,1.89E2,7.2E1,1.656E3,3.4E3,1.25E2,1.06E3],"tree_param":{"num_deleted":"0","num_feature":"25","num_nodes":"127","size_leaf_vector":"1"}},{"base_weights":[-1.1535629E-3,-3.0203405E-1,1.9629525E-1,-5.1208633E-1,-1.8411121E-1,7.276096E-2,3.8364828E-1,-7.5890934E-1,-4.3512627E-1,-3.258545E-1,-1.2078451E-1,-1.3083435E-2,1.6038378E-1,3.0294707E-1,4.3557537E-1,-8.7128145E-1,-6.979603E-1,-4.6308738E-1,-1.352306E-1,-4.281602E-1,-2.9544902E-1,-1.9250798E-1,-3.9487418E-2,9.592764E-2,-6.1312262E-2,5.5490606E-2,1.9545643E-1,2.7129704E-1,3.620466E-1,4.066716E-1,4.6482247E-1,-5.8943164E-1,-9.0803903E-1,-5.871784E-1,-7.425745E-1,-5.3001904E-1,-3.973754E-1,-1.9192427E-1,1.0022675E-1,-5.043307E-1,-3.7587237E-1,-3.3585975E-1,-2.2494799E-1,-2.3369332E-1,-1.05379865E-1,-7.09461E-2,1.0027024E-1,2.7985346E-1,6.724128E-2,-1.3234209E-1,2.643794E-3,7.318662E-2,-5.2237436E-2,2.4524505E-1,1.4393897E-1,2.2797407E-1,2.9653588E-1,3.8445488E-1,3.123767E-1,4.166575E-1,3.247098E-1,4.4419506E-1,4.7506094E-1,-3.314287E-2,-1.2402516E-2,-4.268686E-2,-5.0867137E-2,-3.1845666E-2,-2.4581738E-2,-4.0419277E-2,-3.4482997E-2,-2.885115E-2,-2.2878295E-2,-2.2562467E-2,-1.348368E-2,-6.5518916E-3,-1.4148298E-2,2.9083046E-3,1.3238357E-2,-2.6601518E-2,-1.6842673E-2,-1.8018488E-2,-2.6403133E-2,-1.4560038E-2,-1.9718176E-2,-3.7651516E-3,-1.378033E-2,-8.243037E-3,-1.5216646E-2,-3.1788435E-3,-1.2006122E-2,-5.6504454E-3,-7.6065864E-4,9.162685E-3,2.7560825E-3,-1.308895E-3,1.6313095E-2,-4.83696E-3,5.304772E-3,-1.4918009E-2,-5.3688874E-3,-7.322536E-4,7.138401E-3,2.1517077E-3,5.784741E-3,-5.9458166E-3,-9.5477526E-4,8.883138E-3,1.430023E-2,2.6607272E-4,8.195759E-3,1.3431363E-2,8.113946E-3,1.6290331E-2,1.342907E-2,1.7851582E-2,2.0245524E-2,1.1050059E-2,1.6583337E-2,2.1566382E-2,1.972237E-2,-4.2193054E-4,1.6432187E-2,2.3070255E-2,2.062848E-2,2.2617016E-2,2.4006488E-2],"categories":[0,2,3,4,5,7,9,11,12,13,14,15,17,19,20,22,23,24,25,29,31,32,33,35,36,37,39,40,41,42,43,45,46,47,50,52,53,54,55,56,57,59,61,63,67,70,72,73,75,76,77,78,79,80,81,82,85,2,9,13,27,30,36,40,42,50,63,65,70,74,76,82,0,6,9,13,16,20,27,35,36,42,63,71,72,74,76,0,1,2,3,4,5,6,7,9,10,11,12,13,14,15,16,17,18,19,20,22,23,24,25,26,27,29,30,31,32,33,35,36,37,38,39,40,41,42,43,44,45,46,47,48,50,52,53,54,55,56,57,58,59,60,61,62,63,65,66,67,69,70,71,72,73,74,75,76,77,78,79,80,81,82,83,84,85,3,9,11,13,20,24,27,32,41,45,50,53,1,2,3,4,5,6,7,9,11,12,13,14,15,16,17,19,20,22,23,24,25,26,27,30,31,33,35,36,37,39,40,41,43,45,46,47,50,52,53,54,55,56,57,58,59,60,61,67,70,71,72,75,76,77,80,81,1,2,3,4,5,6,7,8,9,10,11,12,13,14,15,17,19,20,22,23,25,26,29,30,32,35,36,37,38,39,41,42,43,45,46,47,48,50,52,53,54,55,56,57,58,59,61,67,68,70,71,72,73,74,75,76,78,79,80,81,82,84,3,4,5,6,7,8,9,11,12,14,17,19,22,23,25,29,37,39,40,41,43,44,45,46,47,48,49,52,53,54,55,56,57,58,59,61,66,67,70,71,72,73,75,77,78,79,80,82,84,9,13,42,50,70,5,16,21,24,26,27,30,35,36,40,45,46,63,64,65,70,71,72,82,2,9,12,13,16,17,20,24,26,27,31,35,36,41,42,45,53,54,60,63,65,66,70,71,72,73,74,76,81,82,85,0,2,5,9,13,15,16,21,24,26,27,30,33,36,42,46,50,58,63,70,71,72,74,82,13,36,41,45,57,71,72,73,74,82,83,0,2,3,4,5,6,7,8,9,10,11,13,14,15,16,17,18,19,21,22,23,25,26,27,28,29,31,32,33,34,36,37,39,40,41,42,43,44,45,46,47,48,49,51,52,53,54,55,56,57,58,59,60,61,62,63,64,65,67,68,70,71,72,73,74,75,76,77,78,79,80,81,82,83,84,1,3,4,5,6,7,8,9,10,13,14,15,17,18,19,21,22,23,25,28,29,30,32,33,35,37,39,40,41,43,44,45,46,47,48,49,51,52,53,55,56,57,58,59,60,61,62,66,67,68,70,73,74,75,77,78,79,80,82,85,0,1,2,3,4,5,6,7,8,9,10,11,12,14,15,17,18,19,20,21,22,23,24,25,26,27,28,29,30,31,32,33,35,36,37,38,39,40,41,43,45,46,47,48,52,53,54,55,56,57,58,59,61,64,65,67,68,70,71,73,75,76,77,78,80,82,84,1,3,4,5,6,7,8,9,10,11,12,14,16,17,19,20,22,23,25,26,29,32,33,35,36,37,38,39,40,41,43,44,45,46,47,48,49,50,51,52,53,54,55,56,57,58,59,61,63,64,66,67,70,71,72,73,74,75,76,77,78,79,80,81,82,83,84,85,0,2,3,4,5,6,7,8,9,11,13,14,15,16,17,19,21,22,23,25,26,29,31,32,35,36,37,38,39,40,41,42,43,44,46,47,48,49,50,52,53,54,55,56,57,58,59,61,66,67,70,71,73,74,75,77,78,79,80,81,82,83,84,85],"categories_nodes":[11,15,16,23,25,26,28,29,32,41,42,43,44,46,55,56,59,61],"categories_segments":[0,57,72,87,165,177,233,295,344,349,368,399,423,434,509,569,636,704],"categories_sizes":[57,15,15,78,12,56,62,49,5,19,31,24,11,75,60,67,68,64],"default_left":[0,0,1,0,0,1,0,0,1,0,1,1,0,1,1,1,1,0,0,0,0,0,1,0,1,1,1,0,1,1,0,0,1,0,0,1,0,0,0,0,1,1,1,1,1,0,0,0,0,0,1,0,0,0,0,1,0,0,1,0,0,0,0,0,0,0,0,0,0,0,0,0,0,0,0,0,0,0,0,0,0,0,0,0,0,0,0,0,0,0,0,0,0,0,0,0,0,0,0,0,0,0,0,0,0,0,0,0,0,0,0,0,0,0,0,0,0,0,0,0,0,0,0,0,0,0,0],"id":3,"left_children":[1,3,5,7,9,11,13,15,17,19,21,23,25,27,29,31,33,35,37,39,41,43,45,47,49,51,53,55,57,59,61,63,65,67,69,71,73,75,77,79,81,83,85,87,89,91,93,95,97,99,101,103,105,107,109,111,113,115,117,119,121,123,125,-1,-1,-1,-1,-1,-1,-1,-1,-1,-1,-1,-1,-1,-1,-1,-1,-1,-1,-1,-1,-1,-1,-1,-1,-1,-1,-1,-1,-1,-1,-1,-1,-1,-1,-1,-1,-1,-1,-1,-1,-1,-1,-1,-1,-1,-1,-1,-1,-1,-1,-1,-1,-1,-1,-1,-1,-1,-1,-1,-1,-1,-1,-1,-1],"loss_changes":[3.348986E3,5.53098E2,7.8767346E2,1.5208447E2,1.2833752E2,1.5431416E2,5.646765E1,1.22960205E1,5.1229736E1,1.3540894E1,5.764273E1,5.4480392E1,3.7312073E1,9.750244E0,6.6776123E0,6.2148438E0,5.569519E0,2.4331055E1,7.0232506E0,3.7410583E0,9.580627E0,1.8794907E1,2.0395573E1,1.671412E1,3.2653244E1,4.8595023E0,1.9437592E1,3.6588287E0,1.8626251E0,3.1847534E0,5.587158E-1,1.7497807E0,2.4284363E0,1.2941895E0,2.3606873E0,9.069336E0,1.9282928E1,2.2662954E0,6.582154E-1,1.6219864E0,1.143547E0,5.47052E0,9.389835E0,1.7241898E1,9.467897E0,8.863258E0,3.1581516E0,6.1171913E0,1.7538706E1,1.4039516E1,9.174711E0,2.7835674E0,7.7727044E-1,1.0552185E1,1.0343994E1,3.3264847E0,1.6360168E0,4.8886108E-1,8.937607E-1,9.5025635E-1,6.3240814E-1,4.6899414E-1,1.5258789E-3,0E0,0E0,0E0,0E0,0E0,0E0,0E0,0E0,0E0,0E0,0E0,0E0,0E0,0E0,0E0,0E0,0E0,0E0,0E0,0E0,0E0,0E0,0E0,0E0,0E0,0E0,0E0,0E0,0E0,0E0,0E0,0E0,0E0,0E0,0E0,0E0,0E0,0E0,0E0,0E0,0E0,0E0,0E0,0E0,0E0,0E0,0E0,0E0,0E0,0E0,0E0,0E0,0E0,0E0,0E0,0E0,0E0,0E0,0E0,0E0,0E0,0E0,0E0,0E0],"parents":[2147483647,0,0,1,1,2,2,3,3,4,4,5,5,6,6,7,7,8,8,9,9,10,10,11,11,12,12,13,13,14,14,15,15,16,16,17,17,18,18,19,19,20,20,21,21,22,22,23,23,24,24,25,25,26,26,27,27,28,28,29,29,30,30,31,31,32,32,33,33,34,34,35,35,36,36,37,37,38,38,39,39,40,40,41,41,42,42,43,43,44,44,45,45,46,46,47,47,48,48,49,49,50,50,51,51,52,52,53,53,54,54,55,55,56,56,57,57,58,58,59,59,60,60,61,61,62,62],"right_children":[2,4,6,8,10,12,14,16,18,20,22,24,26,28,30,32,34,36,38,40,42,44,46,48,50,52,54,56,58,60,62,64,66,68,70,72,74,76,78,80,82,84,86,88,90,92,94,96,98,100,102,104,106,108,110,112,114,116,118,120,122,124,126,-1,-1,-1,-1,-1,-1,-1,-1,-1,-1,-1,-1,-1,-1,-1,-1,-1,-1,-1,-1,-1,-1,-1,-1,-1,-1,-1,-1,-1,-1,-1,-1,-1,-1,-1,-1,-1,-1,-1,-1,-1,-1,-1,-1,-1,-1,-1,-1,-1,-1,-1,-1,-1,-1,-1,-1,-1,-1,-1,-1,-1,-1,-1,-1],"split_conditions":[3.3069887E0,2.9022408E0,3.6807256E0,2.622685E0,3.0891547E0,3.427626E0,3.8680556E0,2.4020076E0,3.0527866E0,2.9713626E0,3.322974E0,1E-45,3.5220833E0,3.8E0,3.9577777E0,1E-45,1E-45,3.1043642E0,3.4730768E0,2.8819993E0,2.02E3,2.02E3,3.425E0,1E-45,3.1722178E0,1E-45,1E-45,3.5654752E0,1E-45,1E-45,5E0,3.136403E0,1E-45,3.0012496E0,2.5036619E0,2.7570512E0,2.02E3,3.3E0,3.6904166E0,4.8E0,4.8776346E-1,1E-45,1E-45,1E-45,1E-45,2.02E3,1E-45,3.58E0,2.011E3,2.8655148E0,3.5461538E0,2.02E3,2.017E3,3.6910145E0,2.012E3,1E-45,1E-45,3.8485293E0,1.7750178E-2,1E-45,2.8655148E0,1E-45,3.9534662E0,-3.314287E-2,-1.2402516E-2,-4.268686E-2,-5.0867137E-2,-3.1845666E-2,-2.4581738E-2,-4.0419277E-2,-3.4482997E-2,-2.885115E-2,-2.2878295E-2,-2.2562467E-2,-1.348368E-2,-6.5518916E-3,-1.4148298E-2,2.9083046E-3,1.3238357E-2,-2.6601518E-2,-1.6842673E-2,-1.8018488E-2,-2.6403133E-2,-1.4560038E-2,-1.9718176E-2,-3.7651516E-3,-1.378033E-2,-8.243037E-3,-1.5216646E-2,-3.1788435E-3,-1.2006122E-2,-5.6504454E-3,-7.6065864E-4,9.162685E-3,2.7560825E-3,-1.308895E-3,1.6313095E-2,-4.83696E-3,5.304772E-3,-1.4918009E-2,-5.3688874E-3,-7.322536E-4,7.138401E-3,2.1517077E-3,5.784741E-3,-5.9458166E-3,-9.5477526E-4,8.883138E-3,1.430023E-2,2.6607272E-4,8.195759E-3,1.3431363E-2,8.113946E-3,1.6290331E-2,1.342907E-2,1.7851582E-2,2.0245524E-2,1.1050059E-2,1.6583337E-2,2.1566382E-2,1.972237E-2,-4.2193054E-4,1.6432187E-2,2.3070255E-2,2.062848E-2,2.2617016E-2,2.4006488E-2],"split_indices":[6,6,6,9,9,3,6,9,9,3,3,24,9,9,9,24,24,3,9,9,0,0,9,24,3,24,24,3,24,24,8,3,24,3,9,9,0,18,3,17,4,24,24,24,24,0,24,9,0,3,9,0,0,9,0,24,24,9,7,24,3,24,6,0,0,0,0,0,0,0,0,0,0,0,0,0,0,0,0,0,0,0,0,0,0,0,0,0,0,0,0,0,0,0,0,0,0,0,0,0,0,0,0,0,0,0,0,0,0,0,0,0,0,0,0,0,0,0,0,0,0,0,0,0,0,0,0],"split_type":[0,0,0,0,0,0,0,0,0,0,0,1,0,0,0,1,1,0,0,0,0,0,0,1,0,1,1,0,1,1,0,0,1,0,0,0,0,0,0,0,0,1,1,1,1,0,1,0,0,0,0,0,0,0,0,1,1,0,0,1,0,1,0,0,0,0,0,0,0,0,0,0,0,0,0,0,0,0,0,0,0,0,0,0,0,0,0,0,0,0,0,0,0,0,0,0,0,0,0,0,0,0,0,0,0,0,0,0,0,0,0,0,0,0,0,0,0,0,0,0,0,0,0,0,0,0,0],"sum_hessian":[5.637E4,2.2335E4,3.4035E4,8.029E3,1.4306E4,2.0512E4,1.3523E4,1.906E3,6.123E3,4.416E3,9.89E3,1.0361E4,1.0151E4,5.298E3,8.225E3,6.65E2,1.241E3,5.6E3,5.23E2,1.008E3,3.408E3,5.253E3,4.637E3,3.177E3,7.184E3,2.545E3,7.606E3,3.455E3,1.843E3,4.146E3,4.079E3,7.9E1,5.86E2,3.61E2,8.8E2,2.77E3,2.83E3,4.22E2,1.01E2,4.06E2,6.02E2,2.163E3,1.245E3,3.565E3,1.688E3,3.786E3,8.51E2,4.27E2,2.75E3,3.404E3,3.78E3,2.187E3,3.58E2,3.865E3,3.741E3,1.277E3,2.178E3,1.264E3,5.79E2,3.691E3,4.55E2,1.371E3,2.708E3,6.4E1,1.5E1,3.98E2,1.88E2,2.33E2,1.28E2,3.85E2,4.95E2,1.675E3,1.095E3,1.988E3,8.42E2,2.55E2,1.67E2,8.2E1,1.9E1,3.46E2,6E1,5.5E2,5.2E1,1.231E3,9.32E2,3.16E2,9.29E2,1.808E3,1.757E3,1.29E3,3.98E2,2.156E3,1.63E3,2.98E2,5.53E2,5.6E1,3.71E2,5.26E2,2.224E3,4.43E2,2.961E3,3.365E3,4.15E2,1.282E3,9.05E2,1.17E2,2.41E2,1.457E3,2.408E3,4.72E2,3.269E3,7.86E2,4.91E2,1.057E3,1.121E3,5.5E2,7.14E2,1.04E2,4.75E2,2.209E3,1.482E3,5E0,4.5E2,8.77E2,4.94E2,5.14E2,2.194E3],"tree_param":{"num_deleted":"0","num_feature":"25","num_nodes":"127","size_leaf_vector":"1"}},{"base_weights":[-7.293907E-4,-2.7362025E-1,1.9655874E-1,-4.4216555E-1,-1.402856E-1,7.588229E-2,3.6516073E-1,-6.624424E-1,-3.6551204E-1,-2.654629E-1,-8.5639514E-2,-2.4236217E-2,1.4503957E-1,2.8848213E-1,4.143278E-1,-7.683448E-1,-5.776354E-1,-3.910296E-1,-1.1248706E-1,-3.4770894E-1,-2.273348E-1,-1.5025361E-1,-5.9019597E-3,9.853289E-2,-8.133572E-2,8.885906E-2,2.0577656E-1,2.5498894E-1,3.445191E-1,3.8997608E-1,4.434442E-1,-6.309154E-1,-8.19353E-1,-6.100177E-1,-4.724222E-1,-4.3123066E-1,-2.884496E-1,-2.106445E-1,1.9402593E-2,-4.1282782E-1,-2.947708E-1,-1.3162957E-1,-2.5232506E-1,-1.8609942E-1,-7.7814244E-2,-3.802983E-2,1.032732E-1,2.3532753E-1,5.838078E-2,-1.6901857E-1,-1.4932017E-2,1.9266821E-2,1.1804119E-1,1.2933666E-1,2.371401E-1,2.864328E-1,2.1525748E-1,3.6204866E-1,2.8249854E-1,4.016475E-1,3.3076456E-1,4.4873974E-1,4.0180102E-1,-3.3675473E-2,-2.2007424E-2,-4.8380632E-2,-3.899372E-2,-2.909453E-2,-3.4754265E-2,-2.6905924E-2,-1.4860081E-2,-1.5782584E-2,-2.3559054E-2,-7.7688145E-3,-1.7537152E-2,-1.1439412E-2,-4.204306E-4,-0E0,1.8483536E-2,-1.7941978E-2,-2.3365267E-2,-1.66778E-2,-1.07756695E-2,-1.03201E-2,-1.4296608E-3,-1.52126E-2,-1.0991285E-2,-6.7612748E-3,-1.3027518E-2,-7.651147E-4,-7.8120353E-3,1.3468278E-3,-3.5572746E-3,6.936723E-3,1.846718E-3,-6.6574397E-3,1.4009522E-2,4.3601864E-3,-6.409175E-3,-2.0591183E-2,-7.517325E-3,3.0735899E-3,-3.2268302E-3,2.555716E-3,-2.8422945E-3,1.1500873E-2,4.933364E-3,8.066167E-3,4.1816533E-3,1.3332905E-2,6.402459E-3,1.5835578E-2,1.32110985E-2,6.0933055E-3,1.1691566E-2,1.7011251E-2,1.9738004E-2,1.4418154E-2,4.4636773E-3,1.683964E-2,2.029482E-2,1.7148552E-2,1.0826145E-2,1.0303095E-2,2.2450646E-2,1.8232001E-2,2.1594727E-2],"categories":[0,2,3,5,6,7,9,11,12,13,14,15,17,19,20,22,23,24,25,29,30,31,33,35,36,37,39,40,41,42,43,46,47,50,52,53,54,55,56,57,59,60,61,63,67,70,72,73,75,76,77,79,80,81,82,85,9,13,20,27,30,36,40,42,50,65,70,72,74,76,82,2,12,13,14,16,20,23,24,26,27,28,31,33,35,36,42,45,50,51,53,54,63,64,65,66,70,71,72,74,76,77,80,81,82,83,85,0,1,2,3,4,5,6,7,9,11,12,13,14,15,16,17,19,20,22,23,24,25,26,27,29,30,31,32,33,35,36,37,38,39,40,41,42,43,44,45,46,47,48,50,52,53,54,55,56,57,58,59,60,61,63,65,66,67,69,70,71,72,73,74,75,76,77,78,79,80,81,82,84,85,1,2,3,4,5,6,7,8,9,10,11,12,13,14,15,17,18,19,20,22,23,24,25,29,30,31,32,33,35,36,37,39,40,41,42,43,45,46,47,52,53,54,55,56,57,58,59,60,61,65,67,68,70,71,72,73,74,75,77,78,80,82,84,85,0,3,4,5,6,7,8,9,10,12,13,14,15,17,19,22,23,25,26,29,32,35,37,38,39,42,43,46,47,48,50,52,53,54,55,56,57,58,59,61,67,68,70,71,72,73,75,76,78,79,80,81,84,1,3,4,5,6,7,8,9,11,12,14,17,19,22,23,25,26,29,32,36,37,39,40,41,43,44,45,46,47,48,49,52,53,54,55,56,57,58,59,61,64,66,67,70,71,72,73,75,77,78,79,80,82,84,2,3,4,5,6,7,8,9,11,14,15,17,19,22,23,25,29,31,32,33,35,36,37,38,39,40,41,43,44,46,47,48,49,52,53,55,56,57,58,59,61,66,67,70,71,73,74,75,77,78,79,80,82,83,84,85,9,12,13,24,35,36,50,76,4,5,6,13,15,20,22,24,26,27,30,36,40,42,43,53,63,64,65,70,71,72,74,75,76,82,6,13,16,24,26,27,33,35,36,45,62,63,65,71,72,74,75,81,82,1,9,13,16,20,26,31,41,63,70,72,74,76,77,85,0,2,5,9,13,15,16,23,24,26,27,30,42,45,50,58,60,63,66,70,71,72,74,82,2,13,24,26,31,36,41,45,53,63,71,72,73,74,81,82,83,85,1,5,11,13,14,16,20,21,23,24,26,27,31,36,39,41,42,45,50,53,58,60,64,65,66,70,71,72,74,76,77,81,84,0,1,3,4,5,6,7,8,9,10,11,14,17,18,19,21,22,23,24,25,27,28,29,32,34,36,37,39,40,41,42,43,44,45,46,47,48,49,51,52,53,54,55,56,57,58,59,61,62,64,65,67,68,70,71,72,73,75,77,78,79,80,81,82,83,84,1,2,3,4,6,7,8,9,10,11,15,16,17,18,19,21,22,23,25,26,27,28,29,31,32,34,36,37,38,39,40,41,43,44,45,46,47,48,49,50,51,52,55,56,58,59,61,62,64,65,66,67,68,69,70,71,72,74,75,77,78,79,80,81,82,83,84,85,3,9,11,13,16,18,20,21,24,27,28,30,32,38,41,50,69,74,77,82,1,2,3,4,5,6,7,9,11,12,13,14,15,16,17,18,19,20,21,22,23,24,25,26,27,29,31,33,35,36,37,38,39,40,41,42,43,44,45,46,47,50,52,53,54,55,56,57,59,60,61,63,67,68,69,70,71,72,75,77,78,80,81,82,83,84,85,2,3,4,6,7,8,9,10,13,16,17,18,19,20,21,22,23,24,25,27,29,30,31,32,35,37,39,40,41,43,45,46,47,48,49,50,51,52,54,55,57,58,59,60,61,62,63,65,66,67,68,70,71,72,73,75,76,79,81,0,2,3,4,5,6,7,9,11,12,13,14,15,17,19,22,23,24,25,31,35,37,39,40,41,43,46,47,48,50,52,53,54,55,56,57,58,59,61,65,67,70,71,72,75,76,79,81,0,2,3,4,5,6,7,8,9,10,13,14,15,16,17,18,19,20,21,22,24,25,27,28,30,31,33,34,35,37,38,39,40,41,42,43,46,47,49,50,51,52,53,55,56,57,59,60,61,62,63,65,67,68,69,70,73,74,75,76,78,79,80,81,82,83,85],"categories_nodes":[11,15,20,23,27,28,29,30,33,35,36,39,43,44,45,46,50,51,52,53,54,60],"categories_segments":[0,56,71,107,181,245,298,352,408,416,442,461,476,500,518,551,617,685,705,772,831,879],"categories_sizes":[56,15,36,74,64,53,54,56,8,26,19,15,24,18,33,66,68,20,67,59,48,67],"default_left":[0,0,1,0,0,1,0,0,1,0,1,1,0,1,1,1,0,0,0,0,1,0,1,0,0,0,0,0,1,1,1,0,0,1,0,1,1,0,0,1,0,0,0,1,1,1,0,0,0,0,0,1,0,1,1,1,0,0,0,0,0,0,0,0,0,0,0,0,0,0,0,0,0,0,0,0,0,0,0,0,0,0,0,0,0,0,0,0,0,0,0,0,0,0,0,0,0,0,0,0,0,0,0,0,0,0,0,0,0,0,0,0,0,0,0,0,0,0,0,0,0,0,0,0,0,0,0],"id":4,"left_children":[1,3,5,7,9,11,13,15,17,19,21,23,25,27,29,31,33,35,37,39,41,43,45,47,49,51,53,55,57,59,61,63,65,67,69,71,73,75,77,79,81,83,85,87,89,91,93,95,97,99,101,103,105,107,109,111,113,115,117,119,121,123,125,-1,-1,-1,-1,-1,-1,-1,-1,-1,-1,-1,-1,-1,-1,-1,-1,-1,-1,-1,-1,-1,-1,-1,-1,-1,-1,-1,-1,-1,-1,-1,-1,-1,-1,-1,-1,-1,-1,-1,-1,-1,-1,-1,-1,-1,-1,-1,-1,-1,-1,-1,-1,-1,-1,-1,-1,-1,-1,-1,-1,-1,-1,-1,-1],"loss_changes":[3.0222646E3,5.292296E2,6.628307E2,1.753097E2,8.991458E1,1.3150783E2,5.1049072E1,2.3527344E1,4.975049E1,1.239444E1,4.7167076E1,5.439732E1,3.8281906E1,9.825806E0,5.613037E0,7.6799927E0,4.6970825E0,2.8719849E1,9.20189E0,4.1614532E0,6.4673157E0,1.3092972E1,1.4381929E1,1.3485149E1,3.0820686E1,1.1840092E1,1.2869186E1,4.049637E0,1.9902496E0,2.9162598E0,5.640259E-1,2.249237E0,4.1276855E0,2.1931458E0,3.8660889E0,2.3021423E1,1.6291702E1,1.4677658E0,2.0724354E0,1.4055634E0,2.0280952E0,4.354333E0,3.536026E0,1.2734886E1,8.2021E0,6.8262897E0,2.1698008E0,9.276262E0,1.0256277E1,1.0227699E1,1.1434852E1,4.1885796E0,8.865086E0,2.261589E0,1.2240219E1,1.1057434E0,2.4979858E0,8.930054E-1,4.38488E-1,8.2733154E-1,9.170456E-1,6.25E-2,2.504425E-1,0E0,0E0,0E0,0E0,0E0,0E0,0E0,0E0,0E0,0E0,0E0,0E0,0E0,0E0,0E0,0E0,0E0,0E0,0E0,0E0,0E0,0E0,0E0,0E0,0E0,0E0,0E0,0E0,0E0,0E0,0E0,0E0,0E0,0E0,0E0,0E0,0E0,0E0,0E0,0E0,0E0,0E0,0E0,0E0,0E0,0E0,0E0,0E0,0E0,0E0,0E0,0E0,0E0,0E0,0E0,0E0,0E0,0E0,0E0,0E0,0E0,0E0,0E0,0E0],"parents":[2147483647,0,0,1,1,2,2,3,3,4,4,5,5,6,6,7,7,8,8,9,9,10,10,11,11,12,12,13,13,14,14,15,15,16,16,17,17,18,18,19,19,20,20,21,21,22,22,23,23,24,24,25,25,26,26,27,27,28,28,29,29,30,30,31,31,32,32,33,33,34,34,35,35,36,36,37,37,38,38,39,39,40,40,41,41,42,42,43,43,44,44,45,45,46,46,47,47,48,48,49,49,50,50,51,51,52,52,53,53,54,54,55,55,56,56,57,57,58,58,59,59,60,60,61,61,62,62],"right_children":[2,4,6,8,10,12,14,16,18,20,22,24,26,28,30,32,34,36,38,40,42,44,46,48,50,52,54,56,58,60,62,64,66,68,70,72,74,76,78,80,82,84,86,88,90,92,94,96,98,100,102,104,106,108,110,112,114,116,118,120,122,124,126,-1,-1,-1,-1,-1,-1,-1,-1,-1,-1,-1,-1,-1,-1,-1,-1,-1,-1,-1,-1,-1,-1,-1,-1,-1,-1,-1,-1,-1,-1,-1,-1,-1,-1,-1,-1,-1,-1,-1,-1,-1,-1,-1,-1,-1,-1,-1,-1,-1,-1,-1,-1,-1,-1,-1,-1,-1,-1,-1,-1,-1,-1,-1,-1],"split_conditions":[3.3375E0,2.9759057E0,3.6807256E0,2.7030964E0,3.1355588E0,3.3620856E0,3.8680556E0,2.5036619E0,3.1E0,3.0673835E0,3.3590164E0,1E-45,3.5865605E0,3.7928572E0,3.9678597E0,1E-45,3.086584E0,2.02E3,3.2920454E0,2.9795613E0,1E-45,2.02E3,3.420548E0,1E-45,2.014E3,3.4782608E0,3.6251576E0,1E-45,1E-45,1E-45,1E-45,3.1102073E0,2.267318E0,1E-45,2.02E3,1E-45,1E-45,4.6E1,3.814603E0,1E-45,2.02E3,2.019E3,3.0178082E0,1E-45,1E-45,1E-45,1E-45,3.5220833E0,5.646245E-1,2.7481806E0,1E-45,1E-45,1E-45,1E-45,1E-45,2.2E0,2E0,3.8666666E0,1.01E2,3.8545454E0,1E-45,2.6702027E0,2E0,-3.3675473E-2,-2.2007424E-2,-4.8380632E-2,-3.899372E-2,-2.909453E-2,-3.4754265E-2,-2.6905924E-2,-1.4860081E-2,-1.5782584E-2,-2.3559054E-2,-7.7688145E-3,-1.7537152E-2,-1.1439412E-2,-4.204306E-4,-0E0,1.8483536E-2,-1.7941978E-2,-2.3365267E-2,-1.66778E-2,-1.07756695E-2,-1.03201E-2,-1.4296608E-3,-1.52126E-2,-1.0991285E-2,-6.7612748E-3,-1.3027518E-2,-7.651147E-4,-7.8120353E-3,1.3468278E-3,-3.5572746E-3,6.936723E-3,1.846718E-3,-6.6574397E-3,1.4009522E-2,4.3601864E-3,-6.409175E-3,-2.0591183E-2,-7.517325E-3,3.0735899E-3,-3.2268302E-3,2.555716E-3,-2.8422945E-3,1.1500873E-2,4.933364E-3,8.066167E-3,4.1816533E-3,1.3332905E-2,6.402459E-3,1.5835578E-2,1.32110985E-2,6.0933055E-3,1.1691566E-2,1.7011251E-2,1.9738004E-2,1.4418154E-2,4.4636773E-3,1.683964E-2,2.029482E-2,1.7148552E-2,1.0826145E-2,1.0303095E-2,2.2450646E-2,1.8232001E-2,2.1594727E-2],"split_indices":[6,6,6,9,9,3,6,9,9,3,3,24,3,9,9,24,3,0,9,9,24,0,9,24,0,9,9,24,24,24,24,3,9,24,0,24,24,5,9,24,0,0,9,24,24,24,24,9,12,3,24,24,24,24,24,18,8,9,5,9,24,3,10,0,0,0,0,0,0,0,0,0,0,0,0,0,0,0,0,0,0,0,0,0,0,0,0,0,0,0,0,0,0,0,0,0,0,0,0,0,0,0,0,0,0,0,0,0,0,0,0,0,0,0,0,0,0,0,0,0,0,0,0,0,0,0,0],"split_type":[0,0,0,0,0,0,0,0,0,0,0,1,0,0,0,1,0,0,0,0,1,0,0,1,0,0,0,1,1,1,1,0,0,1,0,1,1,0,0,1,0,0,0,1,1,1,1,0,0,0,1,1,1,1,1,0,0,0,0,0,1,0,0,0,0,0,0,0,0,0,0,0,0,0,0,0,0,0,0,0,0,0,0,0,0,0,0,0,0,0,0,0,0,0,0,0,0,0,0,0,0,0,0,0,0,0,0,0,0,0,0,0,0,0,0,0,0,0,0,0,0,0,0,0,0,0,0],"sum_hessian":[5.6134E4,2.3554E4,3.258E4,1.0402E4,1.3152E4,1.899E4,1.359E4,2.683E3,7.719E3,3.995E3,9.157E3,7.758E3,1.1232E4,5.313E3,8.277E3,1.189E3,1.494E3,7.011E3,7.08E2,1.262E3,2.733E3,5.057E3,4.1E3,2.462E3,5.296E3,5.837E3,5.395E3,3.33E3,1.983E3,4.517E3,3.76E3,3.26E2,8.63E2,1.138E3,3.56E2,5.034E3,1.977E3,4.06E2,3.02E2,5.62E2,7E2,5.68E2,2.165E3,3.381E3,1.676E3,3.169E3,9.31E2,5.57E2,1.905E3,2.281E3,3.015E3,1.726E3,4.111E3,1.572E3,3.823E3,1.854E3,1.476E3,1.541E3,4.42E2,3.767E3,7.5E2,3.325E3,4.35E2,2.64E2,6.2E1,1.76E2,6.87E2,8.62E2,2.76E2,2.57E2,9.9E1,1.296E3,3.738E3,6.32E2,1.345E3,3.72E2,3.4E1,2.87E2,1.5E1,2.87E2,2.75E2,4.67E2,2.33E2,3.28E2,2.4E2,8.29E2,1.336E3,2.011E3,1.37E3,9.34E2,7.42E2,1.069E3,2.1E3,6.05E2,3.26E2,6E1,4.97E2,1.651E3,2.54E2,1.61E2,2.12E3,1.186E3,1.829E3,1.218E3,5.08E2,6.04E2,3.507E3,9.22E2,6.5E2,3.007E3,8.16E2,7.77E2,1.077E3,2.47E2,1.229E3,9.33E2,6.08E2,4.28E2,1.4E1,2.38E2,3.529E3,6.75E2,7.5E1,5E0,3.32E3,2.02E2,2.33E2],"tree_param":{"num_deleted":"0","num_feature":"25","num_nodes":"127","size_leaf_vector":"1"}},{"base_weights":[2.1966335E-3,-2.9782668E-1,1.643161E-1,-5.532047E-1,-2.2477138E-1,4.7062445E-2,3.349466E-1,-7.070547E-1,-4.7626686E-1,-2.7789968E-1,-7.611322E-2,-2.077071E-2,1.4010932E-1,2.54775E-1,3.8934106E-1,-7.511803E-1,-5.7234585E-1,-5.3219765E-1,-4.2346913E-1,-4.3600503E-1,-2.4367914E-1,-1.215253E-1,3.6148027E-2,5.9806086E-2,-6.459685E-2,4.3778315E-2,1.7552418E-1,2.2793968E-1,3.2234743E-1,3.6300543E-1,4.1905293E-1,-4.7171265E-1,-7.668138E-1,-4.5395362E-1,-8.007765E-1,-5.110565E-1,-6.279727E-1,-3.109841E-1,-4.6721464E-1,-5.053567E-1,-3.0658838E-1,-3.3869234E-1,-2.0565072E-1,-1.5686253E-1,-7.125599E-2,-4.463857E-2,8.076787E-2,-1.0668434E-1,8.639033E-2,-1.21856846E-1,2.7502251E-3,7.6915205E-2,-1.39540415E-2,3.0362055E-1,1.544173E-1,1.9976433E-1,2.6708388E-1,2.963821E-1,3.7016442E-1,3.7917677E-1,3.2226297E-1,4.236854E-1,3.8053626E-1,-1.4484884E-2,-2.7876405E-2,-4.239269E-2,-3.561112E-2,-1.4968174E-2,-2.5709806E-2,-4.1786652E-2,-4.3909783E-3,-2.0208845E-2,-2.6192674E-2,-3.501736E-2,-2.7430823E-2,-1.8746858E-2,-8.223032E-3,-2.5006829E-2,-2.0120628E-2,-1.3008343E-2,-2.7761934E-2,-6.139488E-3,-1.779756E-2,-1.5092541E-2,-1.9333635E-2,-1.2443106E-2,-6.3126623E-3,-5.573653E-3,-9.895257E-3,-2.4743797E-4,-7.536436E-3,-0E0,-7.497246E-3,8.034655E-3,1.8831715E-3,-2.569667E-2,-4.072402E-3,1.33233685E-2,3.1239127E-3,-1.2484675E-2,-4.8938585E-3,-3.2729374E-3,1.3728809E-3,2.55249E-3,5.7859984E-3,-8.919637E-3,-1.1133193E-4,1.0540986E-2,1.7657617E-2,8.777657E-3,3.6386307E-3,1.0790424E-2,5.945235E-3,1.4293377E-2,1.0355855E-2,1.571658E-2,1.07952785E-2,2.0135492E-2,1.7170234E-2,1.7722948E-2,1.9620866E-2,1.6863236E-2,1.3308992E-2,2.053533E-2,2.159991E-2,1.5364624E-2,1.9736439E-2],"categories":[0,2,3,4,5,6,7,9,11,13,14,15,17,19,20,22,23,24,25,29,31,33,35,36,37,39,40,41,42,43,46,47,50,52,53,54,55,56,57,58,59,61,63,67,70,72,73,75,77,79,80,81,82,85,0,2,9,13,16,20,24,26,27,30,35,36,40,42,50,60,63,65,69,70,71,72,74,76,82,13,20,42,72,76,82,6,13,36,42,69,76,82,0,5,13,15,16,20,22,24,27,36,40,62,63,65,66,71,72,74,76,77,82,2,3,6,7,8,9,10,13,16,17,19,20,22,23,24,25,26,27,29,30,31,32,37,41,43,46,47,48,50,52,53,55,56,57,58,59,61,62,63,67,68,70,72,73,74,75,76,77,79,81,0,1,2,3,4,5,6,7,9,11,12,13,14,15,16,17,19,20,21,22,23,24,25,26,27,30,31,33,35,36,37,38,39,40,41,42,43,44,45,46,47,49,50,52,53,54,55,56,57,59,60,61,63,65,66,67,69,70,71,72,75,76,77,80,81,82,83,84,85,1,3,4,5,6,7,8,9,12,14,17,19,20,22,23,25,26,29,33,35,37,39,40,42,43,44,45,46,47,48,49,52,53,54,55,56,57,58,59,61,64,66,67,70,71,72,73,75,76,77,78,79,80,82,83,84,85,2,3,4,5,6,7,8,9,11,14,15,17,19,22,23,25,26,29,32,33,35,37,38,39,40,41,43,44,46,47,48,49,52,53,54,55,56,57,58,59,66,67,70,71,73,74,75,77,78,79,80,82,83,84,85,13,24,26,27,30,36,40,42,63,65,66,70,71,72,74,76,82,6,13,20,24,26,27,30,63,65,70,72,74,82,0,1,2,5,9,16,26,33,35,36,40,42,45,50,63,71,74,75,82,0,2,5,9,11,13,14,16,20,21,23,24,30,38,42,50,63,70,72,73,74,77,81,82,13,24,27,31,35,36,53,58,60,63,70,71,72,73,74,81,82,9,12,27,35,42,50,53,58,71,72,74,77,0,1,2,3,4,6,7,8,10,11,13,14,15,16,17,18,19,21,22,23,25,26,27,28,29,31,32,34,36,37,38,39,40,41,42,43,44,45,46,47,48,49,51,52,53,54,55,56,57,58,59,60,61,62,63,64,65,67,68,70,71,72,73,74,75,77,78,79,80,81,83,84,85,0,1,2,3,4,5,6,7,9,11,12,13,14,15,16,17,18,19,20,22,23,24,25,26,27,29,30,31,32,33,35,36,37,38,39,40,41,42,43,44,45,46,47,48,50,52,53,54,55,56,57,58,59,60,61,62,63,65,66,67,69,70,71,72,73,74,75,76,77,78,79,80,81,82,83,84,85,2,3,4,6,7,8,9,10,11,13,15,17,18,19,20,22,23,24,25,28,29,32,34,35,37,39,40,41,43,46,47,48,50,51,52,53,54,56,57,58,59,61,62,64,67,68,70,71,72,73,74,75,78,79,81,3,4,6,7,8,9,10,11,13,15,17,19,20,22,23,25,29,31,35,37,39,40,41,43,45,46,47,48,50,52,54,55,56,57,59,60,61,67,68,70,75,80,81,82,1,2,3,4,5,6,7,8,9,10,12,14,15,17,18,19,22,23,24,25,29,30,32,33,35,36,37,38,39,40,41,43,46,47,49,52,53,55,56,57,58,59,61,65,66,67,68,70,73,74,75,78,79,85,0,3,4,6,7,8,9,10,12,13,14,15,17,19,21,22,23,24,25,29,32,35,36,37,38,39,40,41,42,43,45,46,47,48,49,50,52,53,54,55,56,57,58,59,61,67,68,70,72,73,74,75,78,79,80,84,0,1,2,3,4,5,6,7,8,9,10,11,12,13,14,15,16,17,19,20,22,23,24,25,26,27,29,30,31,32,33,35,36,37,38,39,40,43,44,45,46,47,48,50,51,52,53,54,55,56,57,58,59,60,61,62,63,64,65,66,67,68,70,71,72,73,74,75,76,78,79,80,81,82,83,84],"categories_nodes":[11,15,16,17,18,25,26,29,30,39,40,41,43,44,45,46,48,54,55,56,57,58],"categories_segments":[0,54,79,85,92,113,163,232,289,344,361,374,393,417,434,446,519,596,651,695,749,805],"categories_sizes":[54,25,6,7,21,50,69,57,55,17,13,19,24,17,12,73,77,55,44,54,56,76],"default_left":[0,0,1,0,1,1,0,0,0,0,0,1,0,1,1,1,1,1,1,0,0,0,0,0,1,1,0,0,0,1,1,1,0,0,0,1,0,0,0,1,1,1,0,1,1,1,0,0,0,0,0,0,0,0,1,1,1,1,0,0,0,0,0,0,0,0,0,0,0,0,0,0,0,0,0,0,0,0,0,0,0,0,0,0,0,0,0,0,0,0,0,0,0,0,0,0,0,0,0,0,0,0,0,0,0,0,0,0,0,0,0,0,0,0,0,0,0,0,0,0,0,0,0,0,0,0,0],"id":5,"left_children":[1,3,5,7,9,11,13,15,17,19,21,23,25,27,29,31,33,35,37,39,41,43,45,47,49,51,53,55,57,59,61,63,65,67,69,71,73,75,77,79,81,83,85,87,89,91,93,95,97,99,101,103,105,107,109,111,113,115,117,119,121,123,125,-1,-1,-1,-1,-1,-1,-1,-1,-1,-1,-1,-1,-1,-1,-1,-1,-1,-1,-1,-1,-1,-1,-1,-1,-1,-1,-1,-1,-1,-1,-1,-1,-1,-1,-1,-1,-1,-1,-1,-1,-1,-1,-1,-1,-1,-1,-1,-1,-1,-1,-1,-1,-1,-1,-1,-1,-1,-1,-1,-1,-1,-1,-1,-1],"loss_changes":[2.735236E3,3.6783887E2,7.303634E2,5.147339E1,1.2110602E2,1.3659924E2,6.4678345E1,8.116089E0,8.3255005E0,6.09693E1,2.061402E1,4.4202965E1,3.1100769E1,1.0776855E1,6.699463E0,4.3029175E0,9.382233E0,2.4343262E0,7.2170105E0,1.7795166E1,3.345337E1,5.0784264E0,4.203072E0,1.9521519E1,3.127908E1,4.703958E0,1.7943771E1,4.6523743E0,1.9417877E0,2.9069214E0,4.9926758E-1,7.0656395E-1,3.8234863E0,2.0277443E0,2.8997269E0,1.2915955E0,9.324646E-1,3.8856583E0,2.02536E0,1.574707E1,6.295677E0,4.5057983E0,2.2712097E1,3.0915794E0,6.2598E0,1.9405304E0,2.5614066E0,6.1370215E0,1.6326233E1,1.3376808E1,6.2772975E0,1.5441923E0,1.7074935E0,4.199135E0,9.85022E0,3.1984482E0,1.9178772E0,1.485405E0,3.0529022E-1,8.8586426E-1,9.814911E-1,1.37146E-1,2.8460693E-1,0E0,0E0,0E0,0E0,0E0,0E0,0E0,0E0,0E0,0E0,0E0,0E0,0E0,0E0,0E0,0E0,0E0,0E0,0E0,0E0,0E0,0E0,0E0,0E0,0E0,0E0,0E0,0E0,0E0,0E0,0E0,0E0,0E0,0E0,0E0,0E0,0E0,0E0,0E0,0E0,0E0,0E0,0E0,0E0,0E0,0E0,0E0,0E0,0E0,0E0,0E0,0E0,0E0,0E0,0E0,0E0,0E0,0E0,0E0,0E0,0E0,0E0,0E0,0E0],"parents":[2147483647,0,0,1,1,2,2,3,3,4,4,5,5,6,6,7,7,8,8,9,9,10,10,11,11,12,12,13,13,14,14,15,15,16,16,17,17,18,18,19,19,20,20,21,21,22,22,23,23,24,24,25,25,26,26,27,27,28,28,29,29,30,30,31,31,32,32,33,33,34,34,35,35,36,36,37,37,38,38,39,39,40,40,41,41,42,42,43,43,44,44,45,45,46,46,47,47,48,48,49,49,50,50,51,51,52,52,53,53,54,54,55,55,56,56,57,57,58,58,59,59,60,60,61,61,62,62],"right_children":[2,4,6,8,10,12,14,16,18,20,22,24,26,28,30,32,34,36,38,40,42,44,46,48,50,52,54,56,58,60,62,64,66,68,70,72,74,76,78,80,82,84,86,88,90,92,94,96,98,100,102,104,106,108,110,112,114,116,118,120,122,124,126,-1,-1,-1,-1,-1,-1,-1,-1,-1,-1,-1,-1,-1,-1,-1,-1,-1,-1,-1,-1,-1,-1,-1,-1,-1,-1,-1,-1,-1,-1,-1,-1,-1,-1,-1,-1,-1,-1,-1,-1,-1,-1,-1,-1,-1,-1,-1,-1,-1,-1,-1,-1,-1,-1,-1,-1,-1,-1,-1,-1,-1,-1,-1,-1],"split_conditions":[3.2482576E0,2.8214917E0,3.6427767E0,2.5447369E0,3.1355588E0,3.4591777E0,3.8495648E0,2.02E3,2.9351776E0,2.8065152E0,3.3416667E0,1E-45,3.5166667E0,3.7928572E0,3.9577777E0,1E-45,1E-45,1E-45,1E-45,2.019E3,3.0673835E0,2.02E3,2.019E3,3.357143E0,3.2557576E0,1E-45,1E-45,3.7416742E0,3.8714285E0,1E-45,1E-45,2E1,2.372E0,2.021E3,3.3263192E0,9E0,7.82609E1,2.02E3,2.02E3,1E-45,1E-45,1E-45,2.02E3,1E-45,1E-45,1E-45,1E-45,2.8294907E0,1E-45,2.9636433E0,3.357143E0,2.02E3,3.2163208E0,3.6214447E0,1E-45,1E-45,1E-45,1E-45,1E-45,3.909091E0,3.6127016E-1,7E0,3.4668846E0,-1.4484884E-2,-2.7876405E-2,-4.239269E-2,-3.561112E-2,-1.4968174E-2,-2.5709806E-2,-4.1786652E-2,-4.3909783E-3,-2.0208845E-2,-2.6192674E-2,-3.501736E-2,-2.7430823E-2,-1.8746858E-2,-8.223032E-3,-2.5006829E-2,-2.0120628E-2,-1.3008343E-2,-2.7761934E-2,-6.139488E-3,-1.779756E-2,-1.5092541E-2,-1.9333635E-2,-1.2443106E-2,-6.3126623E-3,-5.573653E-3,-9.895257E-3,-2.4743797E-4,-7.536436E-3,-0E0,-7.497246E-3,8.034655E-3,1.8831715E-3,-2.569667E-2,-4.072402E-3,1.33233685E-2,3.1239127E-3,-1.2484675E-2,-4.8938585E-3,-3.2729374E-3,1.3728809E-3,2.55249E-3,5.7859984E-3,-8.919637E-3,-1.1133193E-4,1.0540986E-2,1.7657617E-2,8.777657E-3,3.6386307E-3,1.0790424E-2,5.945235E-3,1.4293377E-2,1.0355855E-2,1.571658E-2,1.07952785E-2,2.0135492E-2,1.7170234E-2,1.7722948E-2,1.9620866E-2,1.6863236E-2,1.3308992E-2,2.053533E-2,2.159991E-2,1.5364624E-2,1.9736439E-2],"split_indices":[6,9,6,9,9,3,6,0,3,6,9,24,9,9,9,24,24,24,24,0,3,0,0,9,3,24,24,6,9,24,24,19,9,0,3,19,20,0,0,24,24,24,0,24,24,24,24,9,24,3,9,0,9,6,24,24,24,24,24,6,7,8,3,0,0,0,0,0,0,0,0,0,0,0,0,0,0,0,0,0,0,0,0,0,0,0,0,0,0,0,0,0,0,0,0,0,0,0,0,0,0,0,0,0,0,0,0,0,0,0,0,0,0,0,0,0,0,0,0,0,0,0,0,0,0,0,0],"split_type":[0,0,0,0,0,0,0,0,0,0,0,1,0,0,0,1,1,1,1,0,0,0,0,0,0,1,1,0,0,1,1,0,0,0,0,0,0,0,0,1,1,1,0,1,1,1,1,0,1,0,0,0,0,0,1,1,1,1,1,0,0,0,0,0,0,0,0,0,0,0,0,0,0,0,0,0,0,0,0,0,0,0,0,0,0,0,0,0,0,0,0,0,0,0,0,0,0,0,0,0,0,0,0,0,0,0,0,0,0,0,0,0,0,0,0,0,0,0,0,0,0,0,0,0,0,0,0],"sum_hessian":[5.6233E4,1.9726E4,3.6507E4,4.386E3,1.534E4,2.1639E4,1.4868E4,1.459E3,2.927E3,1.13E4,4.04E3,1.2515E4,9.124E3,6.013E3,8.855E3,1.095E3,3.64E2,1.416E3,1.511E3,2.008E3,9.292E3,2.877E3,1.163E3,4.408E3,8.107E3,2.454E3,6.67E3,4.308E3,1.705E3,4.703E3,4.152E3,6E1,1.035E3,2.42E2,1.22E2,1.166E3,2.5E2,4.26E2,1.085E3,1.305E3,7.03E2,2.653E3,6.639E3,1.687E3,1.19E3,4.13E2,7.5E2,6.06E2,3.802E3,4.382E3,3.725E3,1.56E3,8.94E2,9.41E2,5.729E3,2.51E3,1.798E3,1.111E3,5.94E2,3.359E3,1.344E3,3.695E3,4.57E2,2.1E1,3.9E1,4.1E2,6.25E2,7E1,1.72E2,1.16E2,6E0,1.29E2,1.037E3,1.26E2,1.24E2,2.95E2,1.31E2,7.14E2,3.71E2,2.22E2,1.083E3,1.5E2,5.53E2,1.506E3,1.147E3,4.297E3,2.342E3,8.04E2,8.83E2,6.5E2,5.4E2,2.91E2,1.22E2,2.61E2,4.89E2,3.4E1,5.72E2,4.44E2,3.358E3,6.9E2,3.692E3,9.89E2,2.736E3,9.39E2,6.21E2,5.8E1,8.36E2,3.3E2,6.11E2,4.549E3,1.18E3,2.092E3,4.18E2,1.365E3,4.33E2,9.05E2,2.06E2,2.6E2,3.34E2,1.184E3,2.175E3,1.055E3,2.89E2,1.467E3,2.228E3,7.9E1,3.78E2],"tree_param":{"num_deleted":"0","num_feature":"25","num_nodes":"127","size_leaf_vector":"1"}},{"base_weights":[1.0079284E-3,-2.7141836E-1,1.621988E-1,-5.2395236E-1,-2.0264703E-1,4.879702E-2,3.200544E-1,-6.839685E-1,-4.641167E-1,-2.553153E-1,-6.250181E-2,1.29192155E-2,1.4997397E-1,2.448897E-1,3.7019596E-1,-5.569473E-1,-7.4041307E-1,-3.680931E-1,-4.9018708E-1,-3.262601E-1,-1.7778331E-1,-1.0714037E-1,3.5568506E-2,-2.0050885E-2,1.3127571E-1,4.3310437E-2,2.0621206E-1,2.2016312E-1,3.0680218E-1,3.4534055E-1,3.9802715E-1,-6.1497325E-1,-3.8790512E-1,-8.728996E-1,-7.062888E-1,-4.1325647E-1,-2.4368834E-1,-5.42646E-1,-4.42611E-1,-3.6848965E-1,-2.2097866E-1,-1.1324437E-1,-2.3371628E-1,-1.3020231E-1,-3.166549E-2,-2.6929563E-2,8.55375E-2,-2.6344977E-2,2.5016654E-2,1.0706173E-1,2.0166942E-1,-7.974158E-2,7.892069E-2,2.9097903E-1,1.7346878E-1,1.96848E-1,2.5247344E-1,2.839357E-1,3.4583497E-1,3.614564E-1,3.0923316E-1,2.0201523E-2,3.707235E-1,-1.9071389E-2,-3.3060893E-2,-3.535745E-3,-2.1877784E-2,-4.6902295E-2,-3.7735004E-2,-2.2620728E-2,-3.5781853E-2,-1.4840965E-2,-2.2507044E-2,-3.173659E-3,-1.5520546E-2,-2.8784333E-2,-2.3197064E-2,-2.3997722E-2,-2.055434E-2,-1.2349377E-2,-2.0498594E-2,-4.316615E-3,-1.39091825E-2,-8.23818E-3,-4.6024035E-4,-1.706806E-2,-1.064935E-2,-7.987833E-3,-3.9150445E-3,4.8713046E-3,-3.3961174E-3,1.5853994E-3,-4.7125765E-3,8.306279E-3,1.9313701E-3,-7.139536E-3,-2.8785114E-4,6.44057E-3,1.9163461E-3,1.1837424E-2,6.733066E-3,-1.9269725E-2,-2.2154278E-3,4.6375724E-3,-7.078859E-4,1.6633285E-2,8.465837E-3,8.033902E-3,1.6079403E-2,1.1416782E-2,8.262384E-3,1.33319E-2,9.226726E-3,1.5107872E-2,9.695467E-3,1.8774202E-2,1.588667E-2,1.7630689E-2,1.9885777E-2,1.6150018E-2,1.3072607E-2,1.7018156E-2,1.9537583E-2],"categories":[0,9,13,20,27,30,36,42,50,65,70,72,76,82,0,6,9,12,13,16,20,24,27,31,35,36,40,42,62,63,65,66,70,71,72,74,76,82,0,0,1,2,3,4,5,6,7,9,11,12,13,14,15,16,17,18,19,20,21,22,23,24,25,26,27,30,31,33,35,36,37,38,39,40,41,42,43,44,45,46,47,48,50,52,53,54,55,56,57,58,59,60,61,62,63,65,66,67,69,70,71,72,73,74,75,76,77,79,80,81,82,83,84,85,1,3,4,5,6,7,8,9,12,14,17,19,20,22,23,25,26,29,32,35,36,37,39,40,41,42,43,44,45,46,47,48,49,52,53,54,55,56,57,58,59,61,63,66,67,70,71,72,73,75,77,78,79,80,81,82,83,84,85,2,3,4,5,6,7,8,9,11,14,15,17,19,21,22,23,25,26,29,31,32,33,35,36,37,38,39,40,41,43,44,46,47,48,49,52,53,54,55,56,57,58,59,61,62,64,66,67,70,71,73,74,75,77,78,79,80,82,83,84,85,2,16,24,26,35,38,40,63,66,71,74,0,9,13,20,27,30,42,50,65,72,76,82,2,5,15,22,23,26,30,33,45,50,51,60,64,77,2,4,6,13,20,21,24,26,27,30,33,36,40,42,43,45,46,63,64,65,70,71,72,74,76,82,6,13,16,24,26,27,35,36,45,63,65,70,71,72,74,75,81,82,1,2,3,4,6,7,8,10,11,12,13,14,16,17,18,19,20,21,22,23,24,25,26,27,28,29,31,32,34,35,36,37,38,39,40,41,42,43,44,45,46,47,48,49,50,51,52,53,54,55,56,57,59,60,61,62,64,66,67,68,69,70,71,72,73,74,75,77,78,79,80,81,82,83,84,2,5,9,12,13,27,30,33,35,41,45,50,53,58,60,71,72,74,77,81,0,1,3,4,6,7,8,10,13,14,16,17,18,19,21,22,23,24,25,26,27,28,29,31,32,34,36,37,38,39,40,41,42,43,44,45,46,47,48,49,51,52,53,54,55,56,57,58,59,60,61,62,63,64,65,67,68,70,71,72,73,74,75,77,78,79,80,81,83,84,85,1,2,3,4,6,7,8,9,10,11,17,18,19,20,21,22,23,25,28,29,31,32,34,37,39,41,43,44,45,46,47,48,49,50,51,52,55,57,58,59,61,62,64,67,68,69,70,72,73,75,76,78,80,81,83,84,0,1,3,4,5,6,7,8,9,10,11,15,16,17,18,19,20,21,22,23,24,25,26,28,29,31,32,34,35,37,38,39,41,42,43,44,46,47,48,49,50,51,52,53,55,56,57,58,59,60,61,62,64,66,67,68,69,70,71,75,78,79,80,81,83,84,0,2,3,4,5,6,7,8,9,10,11,13,14,15,17,19,20,22,23,25,26,27,28,29,30,31,35,36,37,39,40,42,43,45,46,47,48,50,51,52,54,55,56,57,59,60,61,65,67,68,70,73,75,76,77,80,81,82,85,1,2,3,4,5,6,7,8,10,12,14,17,18,19,22,23,24,25,29,30,32,33,35,36,37,38,39,40,41,43,46,47,52,53,54,55,56,57,58,59,61,67,68,73,74,75,78,79,80,0,3,4,6,7,8,9,10,12,15,17,19,21,22,23,24,25,29,32,33,35,37,38,39,40,41,42,43,45,46,47,48,49,52,53,54,55,56,57,58,59,61,67,68,70,72,73,74,75,76,78,79,80,0,1,2,3,4,5,6,7,8,9,10,11,12,13,14,15,16,17,19,20,22,23,24,25,26,27,29,30,31,32,33,35,36,37,38,39,40,43,44,45,46,47,48,50,51,52,53,54,55,56,57,58,59,60,61,62,64,65,66,67,68,69,70,71,72,73,75,76,78,79,80,81,82,83,84],"categories_nodes":[7,8,23,26,29,30,31,34,35,39,40,44,45,46,49,50,55,56,57,58],"categories_segments":[0,14,38,39,114,173,234,245,257,271,297,315,390,410,481,537,603,662,711,764],"categories_sizes":[14,24,1,75,59,61,11,12,14,26,18,75,20,71,56,66,59,49,53,75],"default_left":[0,0,1,0,1,1,0,1,1,0,0,1,0,1,1,0,0,0,0,0,1,0,0,1,0,0,0,0,0,1,1,1,1,1,1,1,0,0,0,1,1,0,0,0,0,1,0,0,0,1,0,0,1,1,1,1,1,1,0,0,0,0,0,0,0,0,0,0,0,0,0,0,0,0,0,0,0,0,0,0,0,0,0,0,0,0,0,0,0,0,0,0,0,0,0,0,0,0,0,0,0,0,0,0,0,0,0,0,0,0,0,0,0,0,0,0,0,0,0,0,0,0,0],"id":6,"left_children":[1,3,5,7,9,11,13,15,17,19,21,23,25,27,29,31,33,35,37,39,41,43,45,47,49,51,53,55,57,59,61,63,65,67,69,71,73,75,77,79,81,83,85,87,89,91,93,95,-1,97,99,101,103,105,107,109,111,113,115,117,119,-1,121,-1,-1,-1,-1,-1,-1,-1,-1,-1,-1,-1,-1,-1,-1,-1,-1,-1,-1,-1,-1,-1,-1,-1,-1,-1,-1,-1,-1,-1,-1,-1,-1,-1,-1,-1,-1,-1,-1,-1,-1,-1,-1,-1,-1,-1,-1,-1,-1,-1,-1,-1,-1,-1,-1,-1,-1,-1,-1,-1,-1],"loss_changes":[2.4736318E3,3.6348816E2,6.334856E2,4.2471924E1,1.2144702E2,7.474901E1,5.560852E1,8.183411E0,7.9072876E0,6.569391E1,1.9701942E1,5.9354904E1,3.230432E1,8.94873E0,5.925293E0,3.378708E0,3.0187073E0,3.7778091E0,6.060486E0,2.7624817E1,2.0583603E1,5.361614E0,4.402177E0,3.892273E1,5.596283E0,8.169717E0,9.697968E0,3.0979462E0,1.3445587E0,2.553772E0,4.5739746E-1,2.6675873E0,1.4930973E0,4.0872192E-1,1.1566467E0,1.9948807E0,2.2275476E0,2.7858887E0,1.3039856E0,2.2286987E1,1.37346115E1,1.4228062E1,6.704422E0,3.5944557E0,3.4016771E0,2.4764898E0,2.933157E0,2.8160728E1,0E0,3.669405E0,1.9195709E0,4.466981E0,1.8706722E0,4.868805E0,4.7293243E0,2.3786087E0,1.6099472E0,1.6487122E0,3.2544708E-1,8.232422E-1,8.161926E-1,0E0,2.6087952E-1,0E0,0E0,0E0,0E0,0E0,0E0,0E0,0E0,0E0,0E0,0E0,0E0,0E0,0E0,0E0,0E0,0E0,0E0,0E0,0E0,0E0,0E0,0E0,0E0,0E0,0E0,0E0,0E0,0E0,0E0,0E0,0E0,0E0,0E0,0E0,0E0,0E0,0E0,0E0,0E0,0E0,0E0,0E0,0E0,0E0,0E0,0E0,0E0,0E0,0E0,0E0,0E0,0E0,0E0,0E0,0E0,0E0,0E0,0E0,0E0],"parents":[2147483647,0,0,1,1,2,2,3,3,4,4,5,5,6,6,7,7,8,8,9,9,10,10,11,11,12,12,13,13,14,14,15,15,16,16,17,17,18,18,19,19,20,20,21,21,22,22,23,23,24,24,25,25,26,26,27,27,28,28,29,29,30,30,31,31,32,32,33,33,34,34,35,35,36,36,37,37,38,38,39,39,40,40,41,41,42,42,43,43,44,44,45,45,46,46,47,47,49,49,50,50,51,51,52,52,53,53,54,54,55,55,56,56,57,57,58,58,59,59,60,60,62,62],"right_children":[2,4,6,8,10,12,14,16,18,20,22,24,26,28,30,32,34,36,38,40,42,44,46,48,50,52,54,56,58,60,62,64,66,68,70,72,74,76,78,80,82,84,86,88,90,92,94,96,-1,98,100,102,104,106,108,110,112,114,116,118,120,-1,122,-1,-1,-1,-1,-1,-1,-1,-1,-1,-1,-1,-1,-1,-1,-1,-1,-1,-1,-1,-1,-1,-1,-1,-1,-1,-1,-1,-1,-1,-1,-1,-1,-1,-1,-1,-1,-1,-1,-1,-1,-1,-1,-1,-1,-1,-1,-1,-1,-1,-1,-1,-1,-1,-1,-1,-1,-1,-1,-1,-1],"split_conditions":[3.2763546E0,2.8214917E0,3.6427767E0,2.5036619E0,3.147234E0,3.4718695E0,3.8495648E0,1E-45,1E-45,3E0,3.3416667E0,3.4842105E0,3.575E0,3.7928572E0,3.9577777E0,2.02E3,2.267318E0,2.02E3,2.6925926E0,2.02E3,2.9E0,9.5E0,2.02E3,1E-45,3.64E0,3.332684E0,1E-45,3.7416742E0,3.8666666E0,1E-45,1E-45,1E-45,2.5E0,3.63636E1,1E-45,1E-45,2.021E3,2.02E3,5.45455E1,1E-45,1E-45,2.02E3,2.9929824E0,3.25E0,1E-45,1E-45,1E-45,2.011E3,2.5016654E-2,1E-45,1E-45,2.972E0,5.4E1,3.297425E0,3.7875E0,1E-45,1E-45,1E-45,1E-45,3.9679768E0,2.9585406E-1,2.0201523E-2,2E0,-1.9071389E-2,-3.3060893E-2,-3.535745E-3,-2.1877784E-2,-4.6902295E-2,-3.7735004E-2,-2.2620728E-2,-3.5781853E-2,-1.4840965E-2,-2.2507044E-2,-3.173659E-3,-1.5520546E-2,-2.8784333E-2,-2.3197064E-2,-2.3997722E-2,-2.055434E-2,-1.2349377E-2,-2.0498594E-2,-4.316615E-3,-1.39091825E-2,-8.23818E-3,-4.6024035E-4,-1.706806E-2,-1.064935E-2,-7.987833E-3,-3.9150445E-3,4.8713046E-3,-3.3961174E-3,1.5853994E-3,-4.7125765E-3,8.306279E-3,1.9313701E-3,-7.139536E-3,-2.8785114E-4,6.44057E-3,1.9163461E-3,1.1837424E-2,6.733066E-3,-1.9269725E-2,-2.2154278E-3,4.6375724E-3,-7.078859E-4,1.6633285E-2,8.465837E-3,8.033902E-3,1.6079403E-2,1.1416782E-2,8.262384E-3,1.33319E-2,9.226726E-3,1.5107872E-2,9.695467E-3,1.8774202E-2,1.588667E-2,1.7630689E-2,1.9885777E-2,1.6150018E-2,1.3072607E-2,1.7018156E-2,1.9537583E-2],"split_indices":[6,9,6,9,9,11,6,24,24,6,9,9,9,9,9,0,9,0,9,0,18,16,0,21,9,9,24,6,9,24,24,24,18,20,24,24,0,0,20,24,24,0,9,9,24,24,24,0,0,24,24,9,19,6,9,24,24,24,24,6,7,0,10,0,0,0,0,0,0,0,0,0,0,0,0,0,0,0,0,0,0,0,0,0,0,0,0,0,0,0,0,0,0,0,0,0,0,0,0,0,0,0,0,0,0,0,0,0,0,0,0,0,0,0,0,0,0,0,0,0,0,0,0],"split_type":[0,0,0,0,0,0,0,1,1,0,0,0,0,0,0,0,0,0,0,0,0,0,0,1,0,0,1,0,0,1,1,1,0,0,1,1,0,0,0,1,1,0,0,0,1,1,1,0,0,1,1,0,0,0,0,1,1,1,1,0,0,0,0,0,0,0,0,0,0,0,0,0,0,0,0,0,0,0,0,0,0,0,0,0,0,0,0,0,0,0,0,0,0,0,0,0,0,0,0,0,0,0,0,0,0,0,0,0,0,0,0,0,0,0,0,0,0,0,0,0,0,0,0],"sum_hessian":[5.6329E4,2.0939E4,3.539E4,4.48E3,1.6459E4,2.0596E4,1.4794E4,1.216E3,3.264E3,1.1962E4,4.497E3,1.5206E4,5.39E3,5.923E3,8.871E3,3.78E2,8.38E2,7.01E2,2.563E3,6.244E3,5.718E3,3.091E3,1.406E3,1.1893E4,3.313E3,1.862E3,3.528E3,4.237E3,1.686E3,4.695E3,4.176E3,2.79E2,9.9E1,1.66E2,6.72E2,5.12E2,1.89E2,1.213E3,1.35E3,4.454E3,1.79E3,2.657E3,3.061E3,2.366E3,7.25E2,6.24E2,7.82E2,1.1752E4,1.41E2,2.468E3,8.45E2,4.17E2,1.445E3,9.8E2,2.548E3,2.467E3,1.77E3,1.07E3,6.16E2,3.238E3,1.457E3,3.409E3,7.67E2,4.8E1,2.31E2,1.4E1,8.5E1,1.02E2,6.4E1,2.6E1,6.46E2,1.26E2,3.86E2,5.2E1,1.37E2,8.49E2,3.64E2,6.1E2,7.4E2,1.136E3,3.318E3,5.35E2,1.255E3,1.776E3,8.81E2,4.91E2,2.57E3,1.505E3,8.61E2,1.58E2,5.67E2,3.33E2,2.91E2,2.86E2,4.96E2,1.764E3,9.988E3,1.873E3,5.95E2,5.52E2,2.93E2,4.2E1,3.75E2,1.259E3,1.86E2,7.28E2,2.52E2,2.348E3,2E2,1.231E3,1.236E3,1.461E3,3.09E2,8.87E2,1.83E2,2.92E2,3.24E2,2.614E3,6.24E2,1.125E3,3.32E2,3.14E2,4.53E2],"tree_param":{"num_deleted":"0","num_feature":"25","num_nodes":"123","size_leaf_vector":"1"}},{"base_weights":[-6.7995413E-4,-2.4743526E-1,1.600963E-1,-4.4767576E-1,-1.6507028E-1,5.0947033E-2,3.0310646E-1,-5.3497285E-1,-3.2828996E-1,-2.3826945E-1,-8.702484E-2,-3.4066755E-2,1.16640456E-1,2.3664485E-1,3.5481873E-1,-6.5414315E-1,-4.8019493E-1,-3.9450723E-1,-1.9545968E-1,-2.9711986E-1,-1.8132745E-1,-4.8880592E-2,-1.7731407E-1,7.820089E-2,-7.6353945E-2,7.3745355E-2,1.8564689E-1,1.9295049E-1,2.652154E-1,3.343413E-1,3.7640595E-1,-6.064766E-1,-7.4213684E-1,-5.827382E-1,-4.5095816E-1,-2.6790345E-1,-4.5479947E-1,-1.0980107E-1,-2.9861227E-1,-3.3081058E-1,-2.1880257E-1,-2.6014483E-1,-1.4738539E-1,-8.692906E-2,1.575699E-2,-2.2700293E-1,-9.330868E-2,2.1398742E-1,4.952844E-2,-1.627023E-1,-3.120861E-2,3.1040592E-2,1.07439175E-1,2.2620733E-1,1.2763529E-1,1.6889423E-1,2.475567E-1,2.8134054E-1,2.1795715E-1,3.409751E-1,2.3877503E-1,3.81326E-1,3.15702E-1,-3.2610066E-2,-1.9108377E-2,-3.3945914E-2,-4.2631418E-2,-2.8337136E-2,-4.3313388E-2,-2.1338768E-2,-2.952302E-2,-7.978051E-3,-1.6672006E-2,-3.0550772E-2,-2.087262E-2,-1.0156958E-2,-3.703012E-5,-1.597091E-2,-0E0,-9.912129E-3,-1.7200368E-2,-1.5489253E-2,-8.001097E-3,-1.0133146E-2,-1.5713463E-2,-5.994184E-3,-1.062969E-2,-7.698979E-3,-2.8042216E-3,5.8154035E-3,-1.869426E-3,-1.3546144E-2,-8.163524E-3,-1.2034884E-3,-8.203826E-3,-3.810303E-3,1.39997555E-2,-2.2246528E-3,3.8718719E-3,-5.7327324E-3,-1.3279348E-2,2.7185264E-3,-3.1344655E-3,2.3769368E-3,-3.3951239E-3,1.1355075E-2,4.6265526E-3,9.21668E-3,1.5189426E-2,3.5293107E-3,9.349025E-3,9.35657E-3,3.041093E-3,1.018668E-2,1.36200925E-2,6.384436E-3,1.4238491E-2,7.0626796E-3,1.1822569E-2,1.4491381E-2,1.7338015E-2,7.3388345E-3,1.4283903E-2,1.9289954E-2,1.7787201E-2,3.8783008E-3,1.6318265E-2],"categories":[0,2,3,5,6,7,9,11,12,13,14,15,17,19,20,22,23,24,25,29,30,31,33,35,36,37,39,40,41,42,43,45,46,47,50,52,53,54,55,56,57,59,60,61,63,67,70,72,73,74,75,76,77,78,79,80,81,82,85,9,13,40,42,76,82,13,24,26,27,30,40,63,65,71,72,74,76,82,6,13,24,26,27,33,35,36,62,65,71,72,82,0,1,2,3,4,5,6,7,9,11,12,13,14,15,16,17,18,19,20,22,23,24,25,26,27,29,30,31,32,33,35,36,37,38,39,40,41,42,43,44,45,46,47,48,49,50,52,53,54,55,56,57,58,59,60,61,62,63,65,66,67,69,70,71,72,73,74,75,76,77,78,79,80,81,82,83,84,85,0,1,2,3,4,5,6,7,9,10,11,12,13,14,15,16,17,19,20,21,22,23,24,25,30,31,33,35,37,39,40,41,43,46,47,48,50,51,52,53,54,55,56,57,58,59,61,65,67,70,71,72,75,76,79,80,81,1,2,3,4,5,6,7,8,10,12,14,15,17,19,22,23,24,25,29,30,32,33,35,36,37,38,39,42,43,45,46,47,52,53,54,55,56,57,59,61,67,70,71,72,73,75,78,79,80,81,84,85,1,3,4,5,6,7,8,9,10,14,17,19,22,23,25,37,39,40,43,44,46,47,48,49,52,53,54,55,56,57,58,59,61,63,67,70,71,72,73,75,78,79,80,82,2,3,4,5,6,7,8,9,11,12,14,17,19,22,23,25,32,35,37,38,39,40,41,43,44,46,47,48,49,52,53,55,56,57,58,59,66,67,70,71,73,74,75,77,78,79,80,82,83,84,85,0,1,2,5,12,13,15,16,20,21,24,26,27,30,33,35,36,40,42,45,46,50,58,63,65,70,71,72,74,76,81,82,1,2,5,9,11,16,20,23,26,31,33,35,36,41,45,50,58,63,70,71,72,74,82,4,14,24,26,31,36,40,51,53,58,71,72,74,80,82,85,0,3,6,7,8,10,13,16,17,18,19,20,22,23,24,25,26,27,29,30,31,32,34,35,37,39,40,41,43,44,46,47,48,49,50,51,52,54,55,56,58,59,60,61,62,64,65,66,67,68,70,71,72,73,74,75,76,77,78,79,81,82,84,16,20,21,23,26,27,28,31,36,42,45,50,60,66,71,72,81,0,2,5,9,15,23,24,43,46,50,54,56,63,70,74,0,1,2,3,4,6,7,8,9,10,11,15,16,17,18,19,21,22,23,25,26,27,28,29,31,32,33,34,35,36,37,38,39,40,41,42,43,44,45,46,47,48,49,50,51,52,53,55,56,58,59,61,62,64,65,66,67,68,69,70,71,72,75,77,78,81,82,85,13,15,16,20,21,24,27,41,42,50,57,63,74,83,1,2,3,4,5,6,7,9,10,11,12,13,14,15,17,18,19,20,21,22,23,24,25,26,27,29,30,31,32,33,35,36,37,38,39,40,41,42,43,44,45,46,47,49,50,52,53,54,55,56,57,59,60,61,65,66,67,68,69,70,71,72,75,76,77,80,81,82,83,84,85,3,5,6,7,8,9,10,11,13,15,17,19,22,23,25,29,37,39,40,42,43,44,45,46,47,48,50,52,54,55,56,57,59,61,62,67,68,70,73,75,79,80,81,82],"categories_nodes":[11,15,17,18,23,26,28,29,30,39,41,42,44,46,49,50,51,52,55],"categories_segments":[0,59,65,78,91,169,226,278,322,373,405,428,444,507,524,539,607,621,692],"categories_sizes":[59,6,13,13,78,57,52,44,51,32,23,16,63,17,15,68,14,71,44],"default_left":[0,0,1,0,1,1,0,0,0,0,1,1,0,0,0,1,0,1,1,0,0,0,0,0,0,0,1,1,1,1,1,0,0,1,1,0,0,1,1,1,0,1,1,0,1,0,1,0,0,1,0,1,0,0,0,1,1,0,1,1,1,0,1,0,0,0,0,0,0,0,0,0,0,0,0,0,0,0,0,0,0,0,0,0,0,0,0,0,0,0,0,0,0,0,0,0,0,0,0,0,0,0,0,0,0,0,0,0,0,0,0,0,0,0,0,0,0,0,0,0,0,0,0,0,0,0,0],"id":7,"left_children":[1,3,5,7,9,11,13,15,17,19,21,23,25,27,29,31,33,35,37,39,41,43,45,47,49,51,53,55,57,59,61,63,65,67,69,71,73,75,77,79,81,83,85,87,89,91,93,95,97,99,101,103,105,107,109,111,113,115,117,119,121,123,125,-1,-1,-1,-1,-1,-1,-1,-1,-1,-1,-1,-1,-1,-1,-1,-1,-1,-1,-1,-1,-1,-1,-1,-1,-1,-1,-1,-1,-1,-1,-1,-1,-1,-1,-1,-1,-1,-1,-1,-1,-1,-1,-1,-1,-1,-1,-1,-1,-1,-1,-1,-1,-1,-1,-1,-1,-1,-1,-1,-1,-1,-1,-1,-1],"loss_changes":[2.2385632E3,3.670111E2,5.332461E2,6.7345825E1,9.006711E1,1.0823539E2,5.0681396E1,2.401941E1,2.3990356E1,2.7172516E1,2.6270649E1,4.010778E1,3.2319504E1,7.986206E0,3.4783936E0,4.347595E0,7.338745E0,1.3767059E1,8.011223E0,1.0426941E1,1.0996338E1,1.3217714E1,9.409554E0,8.960543E0,2.3898937E1,9.686672E0,9.792358E0,3.2859802E0,2.86911E0,2.5727234E0,1.015686E0,7.534546E0,2.1179047E0,1.932663E0,6.4102783E0,4.108032E0,6.859009E0,5.089569E0,2.5687485E0,4.7655945E0,6.3585014E0,3.7549133E0,5.1365776E0,6.964834E0,1.064648E1,3.8955002E0,4.1176405E0,7.7420273E0,5.0186667E0,1.0342258E1,1.0866816E1,4.8607783E0,6.668915E0,7.89653E0,5.8079586E0,3.4819412E0,7.472305E-1,1.456253E0,1.3488159E0,1.0185852E0,1.1316547E0,2.1514893E-1,7.214813E-1,0E0,0E0,0E0,0E0,0E0,0E0,0E0,0E0,0E0,0E0,0E0,0E0,0E0,0E0,0E0,0E0,0E0,0E0,0E0,0E0,0E0,0E0,0E0,0E0,0E0,0E0,0E0,0E0,0E0,0E0,0E0,0E0,0E0,0E0,0E0,0E0,0E0,0E0,0E0,0E0,0E0,0E0,0E0,0E0,0E0,0E0,0E0,0E0,0E0,0E0,0E0,0E0,0E0,0E0,0E0,0E0,0E0,0E0,0E0,0E0,0E0,0E0,0E0,0E0],"parents":[2147483647,0,0,1,1,2,2,3,3,4,4,5,5,6,6,7,7,8,8,9,9,10,10,11,11,12,12,13,13,14,14,15,15,16,16,17,17,18,18,19,19,20,20,21,21,22,22,23,23,24,24,25,25,26,26,27,27,28,28,29,29,30,30,31,31,32,32,33,33,34,34,35,35,36,36,37,37,38,38,39,39,40,40,41,41,42,42,43,43,44,44,45,45,46,46,47,47,48,48,49,49,50,50,51,51,52,52,53,53,54,54,55,55,56,56,57,57,58,58,59,59,60,60,61,61,62,62],"right_children":[2,4,6,8,10,12,14,16,18,20,22,24,26,28,30,32,34,36,38,40,42,44,46,48,50,52,54,56,58,60,62,64,66,68,70,72,74,76,78,80,82,84,86,88,90,92,94,96,98,100,102,104,106,108,110,112,114,116,118,120,122,124,126,-1,-1,-1,-1,-1,-1,-1,-1,-1,-1,-1,-1,-1,-1,-1,-1,-1,-1,-1,-1,-1,-1,-1,-1,-1,-1,-1,-1,-1,-1,-1,-1,-1,-1,-1,-1,-1,-1,-1,-1,-1,-1,-1,-1,-1,-1,-1,-1,-1,-1,-1,-1,-1,-1,-1,-1,-1,-1,-1,-1,-1,-1,-1,-1],"split_conditions":[3.3069887E0,2.8452322E0,3.6427767E0,3.0917325E0,3.2474754E0,3.3654122E0,3.8680556E0,2.566052E0,2.02E3,3.0436208E0,3.922619E-1,1E-45,3.6196625E0,3.7333333E0,3.964706E0,1E-45,2.6903079E0,1E-45,1E-45,2.02E3,3.0534635E0,3.4956715E0,3.1179063E0,1E-45,2.013E3,3.488033E0,1E-45,3.702381E0,1E-45,1E-45,1E-45,2.02E3,4.1E0,4.6E0,5.408498E-1,4.296196E-1,2.5190878E0,3.2968602E0,4.615913E-1,1E-45,3.011878E0,1E-45,1E-45,6.36364E1,1E-45,2.02E3,1E-45,1E0,2.011E3,1E-45,1E-45,1E-45,1E-45,3.6427767E0,2.019E3,1E-45,1.3780677E-1,2.9546316E0,2.5534412E-2,1.1363637E-2,2.5534412E-2,1.234738E-1,2.8427367E0,-3.2610066E-2,-1.9108377E-2,-3.3945914E-2,-4.2631418E-2,-2.8337136E-2,-4.3313388E-2,-2.1338768E-2,-2.952302E-2,-7.978051E-3,-1.6672006E-2,-3.0550772E-2,-2.087262E-2,-1.0156958E-2,-3.703012E-5,-1.597091E-2,-0E0,-9.912129E-3,-1.7200368E-2,-1.5489253E-2,-8.001097E-3,-1.0133146E-2,-1.5713463E-2,-5.994184E-3,-1.062969E-2,-7.698979E-3,-2.8042216E-3,5.8154035E-3,-1.869426E-3,-1.3546144E-2,-8.163524E-3,-1.2034884E-3,-8.203826E-3,-3.810303E-3,1.39997555E-2,-2.2246528E-3,3.8718719E-3,-5.7327324E-3,-1.3279348E-2,2.7185264E-3,-3.1344655E-3,2.3769368E-3,-3.3951239E-3,1.1355075E-2,4.6265526E-3,9.21668E-3,1.5189426E-2,3.5293107E-3,9.349025E-3,9.35657E-3,3.041093E-3,1.018668E-2,1.36200925E-2,6.384436E-3,1.4238491E-2,7.0626796E-3,1.1822569E-2,1.4491381E-2,1.7338015E-2,7.3388345E-3,1.4283903E-2,1.9289954E-2,1.7787201E-2,3.8783008E-3,1.6318265E-2],"split_indices":[6,6,6,3,3,3,6,6,0,6,4,24,3,6,6,24,3,24,24,0,3,3,6,24,0,6,24,3,24,24,24,0,18,18,4,4,6,3,7,24,3,24,24,20,24,0,24,15,0,24,24,24,24,6,0,24,7,3,7,7,7,7,3,0,0,0,0,0,0,0,0,0,0,0,0,0,0,0,0,0,0,0,0,0,0,0,0,0,0,0,0,0,0,0,0,0,0,0,0,0,0,0,0,0,0,0,0,0,0,0,0,0,0,0,0,0,0,0,0,0,0,0,0,0,0,0,0],"split_type":[0,0,0,0,0,0,0,0,0,0,0,1,0,0,0,1,0,1,1,0,0,0,0,1,0,0,1,0,1,1,1,0,0,0,0,0,0,0,0,1,0,1,1,0,1,0,1,0,0,1,1,1,1,0,0,1,0,0,0,0,0,0,0,0,0,0,0,0,0,0,0,0,0,0,0,0,0,0,0,0,0,0,0,0,0,0,0,0,0,0,0,0,0,0,0,0,0,0,0,0,0,0,0,0,0,0,0,0,0,0,0,0,0,0,0,0,0,0,0,0,0,0,0,0,0,0,0],"sum_hessian":[5.6424E4,2.226E4,3.4164E4,6.486E3,1.5774E4,1.9377E4,1.4787E4,3.744E3,2.742E3,8.138E3,7.636E3,8.446E3,1.0931E4,6.474E3,8.313E3,1.175E3,2.569E3,1.828E3,9.14E2,3.999E3,4.139E3,5.37E3,2.266E3,2.31E3,6.136E3,6.743E3,4.188E3,2.564E3,3.91E3,4.277E3,4.036E3,7.68E2,4.07E2,5.65E2,2.004E3,5.92E2,1.236E3,5.01E2,4.13E2,2.793E3,1.206E3,1.243E3,2.896E3,3.381E3,1.989E3,1.422E3,8.44E2,4.01E2,1.909E3,2.105E3,4.031E3,2.976E3,3.767E3,2.462E3,1.726E3,1.784E3,7.8E2,2.91E3,1E3,3.996E3,2.81E2,3.727E3,3.09E2,6.36E2,1.32E2,2.64E2,1.43E2,5.38E2,2.7E1,1.712E3,2.92E2,2.25E2,3.67E2,2.35E2,1.001E3,2.69E2,2.32E2,3.86E2,2.7E1,2.55E2,2.538E3,4.71E2,7.35E2,6.06E2,6.37E2,2.04E3,8.56E2,1.063E3,2.318E3,6.88E2,1.301E3,8.39E2,5.83E2,4.28E2,4.16E2,7.4E1,3.27E2,4.36E2,1.473E3,1.437E3,6.68E2,1.083E3,2.948E3,2.552E3,4.24E2,4.15E2,3.352E3,1.602E3,8.6E2,8.82E2,8.44E2,1.525E3,2.59E2,2.87E2,4.93E2,6.5E1,2.845E3,1.97E2,8.03E2,4.13E2,3.583E3,9.7E1,1.84E2,3.157E3,5.7E2,1.4E1,2.95E2],"tree_param":{"num_deleted":"0","num_feature":"25","num_nodes":"127","size_leaf_vector":"1"}},{"base_weights":[9.727084E-4,-2.2377542E-1,1.6025263E-1,-4.3930003E-1,-1.5232457E-1,6.718261E-2,3.0462423E-1,-5.873622E-1,-3.7442166E-1,-2.3417883E-1,-7.296611E-2,1.5019813E-2,1.6263136E-1,2.473309E-1,3.4260306E-1,-6.183236E-1,-4.261054E-1,-4.2180276E-1,-3.2673594E-1,-4.240195E-1,-2.0260888E-1,-1.2350561E-1,8.946556E-3,-7.146448E-2,4.942888E-2,9.2663735E-2,1.9206977E-1,2.6737267E-1,2.0256138E-1,3.2334036E-1,3.6351433E-1,-6.916571E-1,-5.6472176E-1,-3.555027E-1,-5.4021275E-1,-2.958259E-1,-4.3834084E-1,-3.6194465E-1,-2.5159943E-1,-4.564352E-1,-2.3040067E-1,-1.5487798E-1,-2.5290245E-1,-1.7238629E-1,-6.5028206E-2,-2.0203052E-2,1.0712556E-1,1.00980446E-1,-1.23822816E-1,1.16184086E-1,6.01025E-3,6.153851E-2,1.2081525E-1,2.1775751E-1,1.1127117E-1,2.494071E-1,3.1061023E-1,1.7190862E-1,2.3672026E-1,3.2752314E-1,2.2208622E-1,3.6955583E-1,3.4545508E-1,-2.5356993E-2,-3.589101E-2,-2.9561738E-2,-1.9573627E-2,-2.0447342E-2,-9.074251E-3,-2.8065458E-2,-1.17336605E-2,-1.757948E-2,-9.568368E-3,-2.3112034E-2,-1.9166766E-2,-9.904589E-3,-1.8679924E-2,-5.3088176E-3,-1.4874621E-2,-1.3885406E-2,-2.5065282E-2,-3.7550062E-3,-1.4984152E-2,-9.272659E-3,-3.5695692E-3,-1.3622062E-2,-7.074115E-3,-1.1033548E-2,-4.932813E-3,1.8546112E-4,-5.2519473E-3,1.9008421E-3,-2.3774742E-3,9.008912E-3,3.1419788E-3,1.4009394E-2,3.174992E-3,-6.665665E-3,2.4636513E-2,2.7684376E-3,8.962593E-3,-5.5826018E-3,1.7391549E-3,6.223041E-3,1.3484175E-3,8.812985E-3,5.2436832E-3,1.0319614E-2,1.6347423E-2,-2.3879723E-3,6.489858E-3,1.1279303E-2,1.3369131E-2,1.6825782E-2,1.4112267E-2,4.7982545E-3,9.552699E-3,1.3637224E-2,9.796585E-3,1.6979782E-2,1.5436587E-2,7.0712576E-3,1.3605083E-2,9.716333E-3,1.849787E-2,1.7318757E-2,6.307325E-3],"categories":[1,3,4,5,6,7,8,9,10,12,13,14,15,17,19,20,22,23,24,25,29,30,33,35,36,37,38,39,42,43,46,47,50,52,53,54,55,56,57,59,61,67,70,71,72,73,74,75,76,77,78,80,82,84,85,9,16,20,26,42,70,72,74,82,0,1,5,9,12,13,15,16,20,24,27,30,31,35,36,41,42,50,63,65,66,70,71,72,74,76,82,85,0,2,6,13,23,24,26,35,36,40,42,46,50,63,70,71,72,74,75,80,82,0,1,2,3,5,6,7,8,9,11,12,13,14,15,17,19,20,22,23,24,25,27,29,30,31,33,35,36,37,38,39,40,41,42,43,46,47,50,52,53,54,55,56,57,58,59,60,61,63,65,67,70,71,72,73,74,75,76,77,79,81,82,85,0,2,3,4,5,6,7,9,11,17,19,20,22,23,24,25,28,29,31,33,35,36,37,38,39,40,41,43,44,45,46,47,50,52,53,55,56,57,59,60,61,62,67,68,69,70,72,75,77,78,79,80,81,82,85,0,2,3,4,5,6,7,9,11,12,13,15,17,19,20,22,23,25,26,31,35,37,39,40,41,43,46,47,50,52,53,54,55,56,57,58,59,61,67,70,71,72,75,76,81,3,4,5,6,7,8,9,14,17,19,22,23,25,37,39,40,41,43,44,46,47,48,49,52,53,54,55,56,57,58,59,61,67,70,71,73,75,78,79,80,82,84,0,2,3,4,5,6,7,8,9,10,11,12,14,15,17,18,19,21,22,23,25,29,31,32,33,34,35,36,37,38,39,40,41,43,44,46,47,48,49,52,53,54,55,56,57,58,59,61,62,66,67,68,70,71,72,73,74,75,77,78,79,80,82,83,84,85,2,9,13,27,30,36,42,50,63,65,70,74,76,82,0,1,2,5,12,13,15,16,20,24,26,27,30,31,32,33,35,36,40,42,45,50,53,60,63,65,66,70,71,72,74,76,77,81,82,6,13,15,27,30,63,65,70,71,72,74,76,82,0,13,42,63,65,70,71,72,74,1,2,3,5,6,7,8,9,10,11,13,16,17,19,20,22,23,24,25,26,27,29,31,32,34,36,37,38,39,40,41,42,43,44,45,46,47,48,49,50,51,52,53,55,56,57,58,59,61,62,63,64,67,69,70,71,72,74,77,81,84,0,2,3,4,5,6,7,8,9,10,13,14,16,17,18,19,21,22,23,25,27,28,29,31,32,33,34,35,36,37,39,40,41,42,43,44,45,46,47,48,49,50,51,52,53,54,55,56,57,58,59,60,61,62,63,64,65,67,68,70,71,72,73,74,75,76,77,78,79,80,81,82,84,0,1,2,3,4,5,6,7,8,9,10,11,12,13,14,15,16,17,19,20,21,22,23,24,25,26,27,29,30,31,32,33,35,36,37,38,39,40,41,42,43,44,45,46,47,48,49,50,51,52,53,54,55,56,57,58,59,60,61,63,64,65,66,67,69,70,71,72,73,74,75,76,77,78,79,80,81,82,83,84,85,0,0,1,2,3,4,5,6,7,8,9,10,11,12,13,17,18,19,20,21,22,23,24,25,26,27,29,30,31,32,33,35,37,38,39,40,41,43,45,46,47,48,49,50,51,52,53,54,55,56,57,58,59,60,61,62,63,64,67,68,70,72,73,75,76,77,78,79,81,83,1,2,3,4,5,6,7,8,9,10,11,12,14,15,16,17,19,20,21,22,23,24,25,26,27,29,30,31,32,33,34,35,36,37,38,39,40,41,42,43,45,46,47,48,50,51,52,54,55,56,57,58,59,60,61,62,63,64,65,66,67,68,70,72,73,75,76,78,79,80,81,84,85,0,1,3,4,5,6,7,8,9,10,11,12,13,14,15,16,17,19,20,21,22,23,24,25,26,27,29,30,32,33,35,36,37,38,39,42,43,45,46,47,48,50,52,53,54,55,56,57,58,59,60,61,62,63,64,65,66,67,70,71,72,73,74,75,76,77,78,79,80,81,82,83,84,85,0,2,3,4,5,6,7,8,9,10,11,12,14,15,16,17,18,19,21,22,23,24,25,26,27,28,29,30,31,32,34,35,36,37,38,39,40,41,43,44,45,46,47,48,49,50,51,52,53,54,55,56,57,58,59,60,61,62,63,64,65,66,67,68,69,70,72,73,75,76,78,79,80,81,82,83,84,1,3,4,5,6,7,8,9,10,11,14,15,16,17,19,20,22,23,25,26,29,32,33,35,36,37,38,39,40,41,43,44,45,46,47,48,49,50,51,52,53,54,55,56,57,58,59,61,62,63,64,66,67,70,71,72,73,75,77,78,79,80,81,82,83,84,85],"categories_nodes":[13,16,17,20,23,24,26,29,30,31,37,39,40,45,46,47,48,51,52,56,58,59],"categories_segments":[0,55,64,92,113,176,231,276,318,384,398,433,446,455,516,589,670,671,740,813,887,964],"categories_sizes":[55,9,28,21,63,55,45,42,66,14,35,13,9,61,73,81,1,69,73,74,77,67],"default_left":[0,0,1,0,1,1,0,0,0,0,1,0,0,1,1,0,1,1,0,1,1,0,0,1,1,0,1,1,1,1,0,1,0,0,0,0,0,1,0,1,1,0,1,0,1,1,0,0,1,0,0,0,0,1,0,0,0,0,0,0,0,0,1,0,0,0,0,0,0,0,0,0,0,0,0,0,0,0,0,0,0,0,0,0,0,0,0,0,0,0,0,0,0,0,0,0,0,0,0,0,0,0,0,0,0,0,0,0,0,0,0,0,0,0,0,0,0,0,0,0,0,0,0,0,0,0,0],"id":8,"left_children":[1,3,5,7,9,11,13,15,17,19,21,23,25,27,29,31,33,35,37,39,41,43,45,47,49,51,53,55,57,59,61,63,65,67,69,71,73,75,77,79,81,83,85,87,89,91,93,95,97,99,101,103,105,107,109,111,113,115,117,119,121,123,125,-1,-1,-1,-1,-1,-1,-1,-1,-1,-1,-1,-1,-1,-1,-1,-1,-1,-1,-1,-1,-1,-1,-1,-1,-1,-1,-1,-1,-1,-1,-1,-1,-1,-1,-1,-1,-1,-1,-1,-1,-1,-1,-1,-1,-1,-1,-1,-1,-1,-1,-1,-1,-1,-1,-1,-1,-1,-1,-1,-1,-1,-1,-1,-1],"loss_changes":[2.0178478E3,3.5989673E2,4.4320453E2,5.5591064E1,1.1401895E2,9.9856E1,2.799121E1,8.474243E0,8.937927E0,5.1651154E1,3.693152E1,3.8606953E1,1.4553131E1,4.5278015E0,2.944397E0,5.3131104E0,2.04665E0,4.0199585E0,5.201996E0,7.552246E0,1.7715393E1,1.5732063E1,9.749832E0,3.3349594E1,2.6890211E1,1.8161488E0,1.0293549E1,2.6311188E0,1.5947876E0,1.5905457E0,2.0629883E-1,2.511383E0,3.6343384E0,1.5593796E0,4.8482323E-1,1.2705975E0,2.090088E0,2.4944153E0,4.266083E0,8.227478E0,1.865983E0,9.678886E0,7.7725525E0,1.063707E1,6.924614E0,4.1804476E0,2.4878397E0,5.724292E0,1.6606735E1,1.3992996E1,1.9042902E1,2.1610854E0,9.265442E-1,4.572571E0,3.5675173E0,9.698639E-1,6.066055E-1,1.1873817E0,1.0061378E0,7.135315E-1,5.8582497E-1,6.628418E-2,1.0095215E-1,0E0,0E0,0E0,0E0,0E0,0E0,0E0,0E0,0E0,0E0,0E0,0E0,0E0,0E0,0E0,0E0,0E0,0E0,0E0,0E0,0E0,0E0,0E0,0E0,0E0,0E0,0E0,0E0,0E0,0E0,0E0,0E0,0E0,0E0,0E0,0E0,0E0,0E0,0E0,0E0,0E0,0E0,0E0,0E0,0E0,0E0,0E0,0E0,0E0,0E0,0E0,0E0,0E0,0E0,0E0,0E0,0E0,0E0,0E0,0E0,0E0,0E0,0E0,0E0],"parents":[2147483647,0,0,1,1,2,2,3,3,4,4,5,5,6,6,7,7,8,8,9,9,10,10,11,11,12,12,13,13,14,14,15,15,16,16,17,17,18,18,19,19,20,20,21,21,22,22,23,23,24,24,25,25,26,26,27,27,28,28,29,29,30,30,31,31,32,32,33,33,34,34,35,35,36,36,37,37,38,38,39,39,40,40,41,41,42,42,43,43,44,44,45,45,46,46,47,47,48,48,49,49,50,50,51,51,52,52,53,53,54,54,55,55,56,56,57,57,58,58,59,59,60,60,61,61,62,62],"right_children":[2,4,6,8,10,12,14,16,18,20,22,24,26,28,30,32,34,36,38,40,42,44,46,48,50,52,54,56,58,60,62,64,66,68,70,72,74,76,78,80,82,84,86,88,90,92,94,96,98,100,102,104,106,108,110,112,114,116,118,120,122,124,126,-1,-1,-1,-1,-1,-1,-1,-1,-1,-1,-1,-1,-1,-1,-1,-1,-1,-1,-1,-1,-1,-1,-1,-1,-1,-1,-1,-1,-1,-1,-1,-1,-1,-1,-1,-1,-1,-1,-1,-1,-1,-1,-1,-1,-1,-1,-1,-1,-1,-1,-1,-1,-1,-1,-1,-1,-1,-1,-1,-1,-1,-1,-1,-1],"split_conditions":[3.333247E0,2.904738E0,3.7056818E0,2.5832164E0,3.239558E0,3.5357144E0,3.8857143E0,2.7473683E0,2.7767956E0,2.7813842E0,3.2450876E0,2.013E3,3.6092632E0,1E-45,3.9678597E0,2.4020076E0,1E-45,1E-45,2.02E3,2.911715E0,1E-45,3.1179063E0,3.502439E0,1E-45,1E-45,3.5166667E0,1E-45,3.8416667E0,3.5727022E0,1E-45,1E-45,1E-45,3.1462054E0,3.079664E0,3.071622E0,3.1264646E0,2.02E3,1E-45,2.021E3,1E-45,1E-45,2.02E3,3.147234E0,2.02E3,2.911715E0,1E-45,1E-45,1E-45,1E-45,3.5649412E0,3.1917906E0,1E-45,1E-45,3.814603E0,2.011E3,3.7928572E0,1E-45,3.7333333E0,1E-45,1E-45,2.015E3,1.3E0,5.6333715E-1,-2.5356993E-2,-3.589101E-2,-2.9561738E-2,-1.9573627E-2,-2.0447342E-2,-9.074251E-3,-2.8065458E-2,-1.17336605E-2,-1.757948E-2,-9.568368E-3,-2.3112034E-2,-1.9166766E-2,-9.904589E-3,-1.8679924E-2,-5.3088176E-3,-1.4874621E-2,-1.3885406E-2,-2.5065282E-2,-3.7550062E-3,-1.4984152E-2,-9.272659E-3,-3.5695692E-3,-1.3622062E-2,-7.074115E-3,-1.1033548E-2,-4.932813E-3,1.8546112E-4,-5.2519473E-3,1.9008421E-3,-2.3774742E-3,9.008912E-3,3.1419788E-3,1.4009394E-2,3.174992E-3,-6.665665E-3,2.4636513E-2,2.7684376E-3,8.962593E-3,-5.5826018E-3,1.7391549E-3,6.223041E-3,1.3484175E-3,8.812985E-3,5.2436832E-3,1.0319614E-2,1.6347423E-2,-2.3879723E-3,6.489858E-3,1.1279303E-2,1.3369131E-2,1.6825782E-2,1.4112267E-2,4.7982545E-3,9.552699E-3,1.3637224E-2,9.796585E-3,1.6979782E-2,1.5436587E-2,7.0712576E-3,1.3605083E-2,9.716333E-3,1.849787E-2,1.7318757E-2,6.307325E-3],"split_indices":[6,9,6,9,3,3,6,6,9,6,9,0,9,24,9,9,24,24,0,9,24,6,9,24,24,9,24,9,3,24,24,24,3,3,6,3,0,24,0,24,24,0,9,0,9,24,24,24,21,6,3,24,24,9,0,9,24,6,24,24,0,17,12,0,0,0,0,0,0,0,0,0,0,0,0,0,0,0,0,0,0,0,0,0,0,0,0,0,0,0,0,0,0,0,0,0,0,0,0,0,0,0,0,0,0,0,0,0,0,0,0,0,0,0,0,0,0,0,0,0,0,0,0,0,0,0,0],"split_type":[0,0,0,0,0,0,0,0,0,0,0,0,0,1,0,0,1,1,0,0,1,0,0,1,1,0,1,0,0,1,1,1,0,0,0,0,0,1,0,1,1,0,0,0,0,1,1,1,1,0,0,1,1,0,0,0,1,0,1,1,0,0,0,0,0,0,0,0,0,0,0,0,0,0,0,0,0,0,0,0,0,0,0,0,0,0,0,0,0,0,0,0,0,0,0,0,0,0,0,0,0,0,0,0,0,0,0,0,0,0,0,0,0,0,0,0,0,0,0,0,0,0,0,0,0,0,0],"sum_hessian":[5.6366E4,2.3378E4,3.2988E4,5.819E3,1.7559E4,2.0059E4,1.2929E4,1.77E3,4.049E3,8.642E3,8.917E3,1.2972E4,7.087E3,5.158E3,7.771E3,1.482E3,2.88E2,2.026E3,2.023E3,1.23E3,7.412E3,5.515E3,3.402E3,3.691E3,9.281E3,2.101E3,4.986E3,3.558E3,1.6E3,4.056E3,3.715E3,6.2E2,8.62E2,1.81E2,1.07E2,2.38E2,1.788E3,1.374E3,6.49E2,1.052E3,1.78E2,3.806E3,3.606E3,3.002E3,2.513E3,2.623E3,7.79E2,8.59E2,2.832E3,3.656E3,5.625E3,1.001E3,1.1E3,3.781E3,1.205E3,2.52E3,1.038E3,8.48E2,7.52E2,3.892E3,1.64E2,2.765E3,9.5E2,8E1,5.4E2,7.45E2,1.17E2,1.37E2,4.4E1,9.9E1,8E0,1.53E2,8.5E1,1.24E3,5.48E2,9.3E1,1.281E3,1.57E2,4.92E2,2.13E2,8.39E2,5.6E1,1.22E2,2.784E3,1.022E3,3.066E3,5.4E2,1.812E3,1.19E3,9.24E2,1.589E3,8.37E2,1.786E3,2.92E2,4.87E2,1.47E2,7.12E2,2.79E3,4.2E1,1.863E3,1.793E3,1.104E3,4.521E3,3.53E2,6.48E2,2.42E2,8.58E2,3.428E3,3.53E2,1.25E2,1.08E3,1.092E3,1.428E3,5.35E2,5.03E2,1.73E2,6.75E2,3.95E2,3.57E2,2.356E3,1.536E3,6.5E1,9.9E1,8E0,2.757E3,9.45E2,5E0],"tree_param":{"num_deleted":"0","num_feature":"25","num_nodes":"127","size_leaf_vector":"1"}},{"base_weights":[-3.1102252E-5,-2.222809E-1,1.4441335E-1,-4.286874E-1,-1.5589479E-1,4.541128E-2,2.737782E-1,-5.694511E-1,-3.6774495E-1,-1.9741224E-1,-1.845378E-2,-3.7741855E-2,1.0268189E-1,1.9776195E-1,3.1281E-1,-2.6911232E-1,-5.853469E-1,-3.9850196E-1,-2.9839736E-1,-2.7979228E-1,-1.4468302E-1,-4.8224725E-2,8.910473E-2,7.4545234E-2,-7.901806E-2,1.616433E-2,1.3204741E-1,1.805332E-1,2.557882E-1,2.7693632E-1,3.3304027E-1,-4.5772886E-1,-1.7973703E-1,-6.232099E-1,-4.693876E-1,-4.4860286E-1,-3.6332223E-1,-2.0897914E-1,-3.485275E-1,-4.050402E-1,-2.5184342E-1,-2.2291684E-1,-1.11988604E-1,-9.360701E-2,-1.4440154E-2,1.4465591E-1,3.4539424E-2,1.9471192E-1,4.3149542E-2,-3.4326062E-1,-6.650996E-2,-1.01243E-2,5.241745E-2,2.501987E-1,1.15252666E-1,2.2128087E-1,1.621696E-1,2.2421879E-1,2.8550828E-1,2.9538742E-1,2.3809175E-1,3.4049422E-1,2.9358062E-1,-7.6160445E-3,-2.5921488E-2,2.390132E-3,-1.3767776E-2,-3.6882E-2,-2.984563E-2,-1.8524718E-2,-3.321355E-2,-1.99916E-2,-2.4214229E-2,-1.3739145E-2,-1.8922303E-2,-1.3105671E-2,-2.6783107E-3,-1.9349083E-2,-1.4084875E-2,-1.5335E-2,-2.5113884E-2,-1.698242E-2,-1.118272E-2,-8.815656E-3,-1.2922958E-2,-3.0544654E-3,-7.7985353E-3,-9.988823E-4,-6.367672E-3,2.6397093E-3,-2.2584368E-3,5.278457E-3,1.2869785E-2,2.0146181E-3,-1.8006632E-2,-4.013617E-3,1.2026726E-2,2.765297E-4,6.0087927E-3,-5.9855147E-3,-2.8428683E-2,-6.366126E-3,-1.0869508E-3,2.178369E-3,-2.0405196E-3,5.8574006E-3,7.85924E-4,7.122981E-3,1.4508261E-2,3.8902112E-3,7.662414E-3,8.573262E-3,1.1969797E-2,8.816502E-3,3.8940788E-3,1.2549475E-2,8.918313E-3,1.6277378E-2,1.3383138E-2,1.4024277E-2,1.5933452E-2,8.182247E-3,1.2973643E-2,1.6408948E-2,1.7552244E-2,5.2265306E-3,1.4920609E-2],"categories":[0,2,6,9,13,16,20,24,26,27,30,35,36,40,42,50,60,63,65,66,69,70,71,72,74,76,81,82,0,2,3,4,5,7,8,9,11,12,13,14,15,17,19,20,22,23,24,25,29,30,31,33,35,36,37,39,40,41,42,43,45,46,47,48,49,50,52,53,54,55,56,57,59,60,61,63,66,67,70,72,73,75,76,77,79,80,81,82,85,0,13,15,16,22,24,26,27,36,40,42,45,51,53,63,64,65,66,70,71,72,82,0,2,3,4,6,7,8,9,10,11,13,14,16,17,18,19,21,22,23,25,27,28,29,31,32,33,34,35,36,37,39,40,41,42,43,44,45,46,47,48,49,50,51,52,53,54,55,56,57,58,59,60,61,62,64,65,67,68,70,71,72,73,74,75,77,78,79,80,81,83,84,0,1,2,3,4,5,6,7,8,9,11,12,13,14,15,16,17,18,19,20,22,23,24,25,26,27,29,30,31,32,33,35,36,37,38,39,40,41,42,43,44,45,46,47,48,49,50,52,53,54,55,56,57,58,59,60,61,62,63,65,66,67,69,70,71,72,73,74,75,76,77,78,79,80,81,82,83,85,0,1,2,3,4,5,6,7,9,11,12,13,14,15,16,17,19,20,21,22,23,24,25,26,27,30,31,33,35,36,37,38,39,40,41,42,43,44,45,46,47,50,53,54,55,56,57,59,60,61,63,65,66,67,69,70,71,72,75,76,77,78,80,81,82,83,84,85,1,3,4,5,6,7,8,9,10,11,12,13,14,17,18,19,20,21,22,23,24,25,26,27,28,29,30,31,32,33,36,37,39,40,41,42,43,45,46,47,50,51,52,53,54,55,56,57,59,60,61,65,66,67,68,70,71,73,74,75,77,80,81,82,84,85,1,3,4,5,6,7,8,10,12,14,17,19,20,21,22,23,25,29,35,36,37,38,39,40,41,43,44,45,46,47,48,49,52,53,54,55,56,57,59,61,67,70,71,72,73,74,75,76,77,78,79,80,81,82,83,84,85,2,3,4,5,6,7,8,9,11,12,14,15,17,19,22,23,25,26,31,32,36,37,38,39,40,41,43,44,46,47,48,49,52,53,55,56,57,58,59,63,66,67,70,71,73,75,77,78,79,80,82,83,84,85,13,20,42,76,82,5,6,9,13,16,20,24,31,36,42,63,65,70,72,76,82,85,0,5,9,13,16,20,23,26,31,33,35,36,40,45,46,50,58,63,70,71,72,74,77,85,2,4,9,11,12,13,14,16,20,23,27,31,33,35,41,45,50,53,54,60,66,70,71,72,73,74,77,81,82,83,1,2,5,9,11,16,23,24,26,27,30,31,36,41,42,45,50,51,53,58,63,65,70,72,74,76,77,81,82,85,0,9,30,31,36,40,50,60,70,72,77,82,0,1,3,5,6,7,8,9,10,11,12,13,15,16,18,20,21,24,26,30,31,32,33,36,38,40,41,45,50,66,69,76,77,81,82,83,84,0,2,3,4,5,6,7,8,10,11,12,13,15,16,17,18,19,20,22,23,24,25,27,29,31,32,33,34,37,39,40,41,42,43,44,46,47,48,49,50,51,52,53,55,57,58,59,60,61,62,63,64,67,68,70,72,73,74,75,76,78,79,80,81,85,0,1,2,3,4,5,6,7,8,9,10,11,12,13,14,15,17,18,19,20,21,22,23,24,25,29,31,32,33,35,36,37,38,39,40,41,42,43,45,46,47,48,49,50,52,53,54,55,56,57,58,59,60,61,62,66,67,68,69,70,71,73,74,75,78,79,80,82,84],"categories_nodes":[7,11,18,22,23,26,27,29,30,34,35,41,43,44,49,51,52,57],"categories_segments":[0,28,89,111,182,260,328,394,451,505,510,527,551,581,611,623,660,725],"categories_sizes":[28,61,22,71,78,68,66,57,54,5,17,24,30,30,12,37,65,69],"default_left":[0,0,1,0,1,1,0,1,0,0,0,1,0,1,0,1,0,0,1,0,0,1,0,0,0,0,0,0,1,1,1,0,1,0,1,1,1,0,0,0,0,1,1,1,1,0,0,0,0,1,0,1,0,0,0,0,0,0,1,1,1,1,0,0,0,0,0,0,0,0,0,0,0,0,0,0,0,0,0,0,0,0,0,0,0,0,0,0,0,0,0,0,0,0,0,0,0,0,0,0,0,0,0,0,0,0,0,0,0,0,0,0,0,0,0,0,0,0,0,0,0,0,0,0,0,0,0],"id":9,"left_children":[1,3,5,7,9,11,13,15,17,19,21,23,25,27,29,31,33,35,37,39,41,43,45,47,49,51,53,55,57,59,61,63,65,67,69,71,73,75,77,79,81,83,85,87,89,91,93,95,97,99,101,103,105,107,109,111,113,115,117,119,121,123,125,-1,-1,-1,-1,-1,-1,-1,-1,-1,-1,-1,-1,-1,-1,-1,-1,-1,-1,-1,-1,-1,-1,-1,-1,-1,-1,-1,-1,-1,-1,-1,-1,-1,-1,-1,-1,-1,-1,-1,-1,-1,-1,-1,-1,-1,-1,-1,-1,-1,-1,-1,-1,-1,-1,-1,-1,-1,-1,-1,-1,-1,-1,-1,-1],"loss_changes":[1.8073606E3,3.037556E2,4.3696936E2,4.598633E1,9.5736206E1,9.2069046E1,4.3775757E1,7.529236E0,7.850403E0,5.590045E1,1.2472461E1,3.654698E1,2.9068222E1,4.930786E0,6.9379883E0,1.2700262E0,6.381653E0,4.3507996E0,5.0846252E0,1.7432983E1,2.0048477E1,4.667234E0,2.535389E0,7.9621973E0,1.8993813E1,2.771449E0,1.6892624E1,2.826828E0,9.6022797E-1,2.4071045E0,1.6722412E0,3.3595896E-1,1.3195815E0,2.9199219E0,7.070389E0,1.5799866E0,1.8901367E0,3.4309044E0,1.7335434E0,8.514618E0,1.0050415E1,3.7455215E0,1.2386604E1,3.215353E0,3.621282E0,1.7740965E0,9.5431095E-1,5.554352E0,4.86061E0,1.2958996E1,1.4975876E1,2.7727454E0,2.887788E0,4.488327E0,1.0615196E1,1.0007629E0,3.1571884E0,6.021538E-1,2.7153778E-1,6.791687E-1,1.7361984E0,4.9786377E-1,8.4282684E-1,0E0,0E0,0E0,0E0,0E0,0E0,0E0,0E0,0E0,0E0,0E0,0E0,0E0,0E0,0E0,0E0,0E0,0E0,0E0,0E0,0E0,0E0,0E0,0E0,0E0,0E0,0E0,0E0,0E0,0E0,0E0,0E0,0E0,0E0,0E0,0E0,0E0,0E0,0E0,0E0,0E0,0E0,0E0,0E0,0E0,0E0,0E0,0E0,0E0,0E0,0E0,0E0,0E0,0E0,0E0,0E0,0E0,0E0,0E0,0E0,0E0,0E0,0E0,0E0],"parents":[2147483647,0,0,1,1,2,2,3,3,4,4,5,5,6,6,7,7,8,8,9,9,10,10,11,11,12,12,13,13,14,14,15,15,16,16,17,17,18,18,19,19,20,20,21,21,22,22,23,23,24,24,25,25,26,26,27,27,28,28,29,29,30,30,31,31,32,32,33,33,34,34,35,35,36,36,37,37,38,38,39,39,40,40,41,41,42,42,43,43,44,44,45,45,46,46,47,47,48,48,49,49,50,50,51,51,52,52,53,53,54,54,55,55,56,56,57,57,58,58,59,59,60,60,61,61,62,62],"right_children":[2,4,6,8,10,12,14,16,18,20,22,24,26,28,30,32,34,36,38,40,42,44,46,48,50,52,54,56,58,60,62,64,66,68,70,72,74,76,78,80,82,84,86,88,90,92,94,96,98,100,102,104,106,108,110,112,114,116,118,120,122,124,126,-1,-1,-1,-1,-1,-1,-1,-1,-1,-1,-1,-1,-1,-1,-1,-1,-1,-1,-1,-1,-1,-1,-1,-1,-1,-1,-1,-1,-1,-1,-1,-1,-1,-1,-1,-1,-1,-1,-1,-1,-1,-1,-1,-1,-1,-1,-1,-1,-1,-1,-1,-1,-1,-1,-1,-1,-1,-1,-1,-1,-1,-1,-1,-1],"split_conditions":[3.3069887E0,2.8819993E0,3.6427767E0,2.5636363E0,3.2163208E0,3.3447092E0,3.8185184E0,1E-45,3.136403E0,2.9759057E0,3.4685154E0,1E-45,3.4889064E0,3.7875E0,3.9238095E0,3.2362166E-1,2.02E3,2.713238E0,1E-45,2.6740272E0,3.1462054E0,6.36364E1,1E-45,1E-45,2.7131855E0,2.02E3,1E-45,1E-45,1.6801214E-1,1E-45,1E-45,1.7E1,2.9E0,2.267318E0,1E-45,1E-45,2.7E0,2.02E3,2.02E3,3.4E0,3.0069714E0,1E-45,2.8E0,1E-45,1E-45,3.6964839E0,5.915932E-1,3.5220833E0,2.018E3,1E-45,2.014E3,1E-45,1E-45,3.7777777E0,3.5865605E0,3.6964839E0,4.9083498E-1,1E-45,1.6E0,3.8925254E0,5.320019E-2,3.9768612E0,2.9546316E0,-7.6160445E-3,-2.5921488E-2,2.390132E-3,-1.3767776E-2,-3.6882E-2,-2.984563E-2,-1.8524718E-2,-3.321355E-2,-1.99916E-2,-2.4214229E-2,-1.3739145E-2,-1.8922303E-2,-1.3105671E-2,-2.6783107E-3,-1.9349083E-2,-1.4084875E-2,-1.5335E-2,-2.5113884E-2,-1.698242E-2,-1.118272E-2,-8.815656E-3,-1.2922958E-2,-3.0544654E-3,-7.7985353E-3,-9.988823E-4,-6.367672E-3,2.6397093E-3,-2.2584368E-3,5.278457E-3,1.2869785E-2,2.0146181E-3,-1.8006632E-2,-4.013617E-3,1.2026726E-2,2.765297E-4,6.0087927E-3,-5.9855147E-3,-2.8428683E-2,-6.366126E-3,-1.0869508E-3,2.178369E-3,-2.0405196E-3,5.8574006E-3,7.85924E-4,7.122981E-3,1.4508261E-2,3.8902112E-3,7.662414E-3,8.573262E-3,1.1969797E-2,8.816502E-3,3.8940788E-3,1.2549475E-2,8.918313E-3,1.6277378E-2,1.3383138E-2,1.4024277E-2,1.5933452E-2,8.182247E-3,1.2973643E-2,1.6408948E-2,1.7552244E-2,5.2265306E-3,1.4920609E-2],"split_indices":[6,9,6,9,9,3,6,24,3,6,9,24,9,9,6,4,0,9,24,6,3,20,24,24,3,0,24,24,7,24,24,19,18,9,24,24,18,0,0,18,3,24,18,24,24,9,12,9,0,24,0,24,24,9,3,9,7,24,18,9,7,9,3,0,0,0,0,0,0,0,0,0,0,0,0,0,0,0,0,0,0,0,0,0,0,0,0,0,0,0,0,0,0,0,0,0,0,0,0,0,0,0,0,0,0,0,0,0,0,0,0,0,0,0,0,0,0,0,0,0,0,0,0,0,0,0,0],"split_type":[0,0,0,0,0,0,0,1,0,0,0,1,0,0,0,0,0,0,1,0,0,0,1,1,0,0,1,1,0,1,1,0,0,0,1,1,0,0,0,0,0,1,0,1,1,0,0,0,0,1,0,1,1,0,0,0,0,1,0,0,0,0,0,0,0,0,0,0,0,0,0,0,0,0,0,0,0,0,0,0,0,0,0,0,0,0,0,0,0,0,0,0,0,0,0,0,0,0,0,0,0,0,0,0,0,0,0,0,0,0,0,0,0,0,0,0,0,0,0,0,0,0,0,0,0,0,0],"sum_hessian":[5.6297E4,2.2176E4,3.4121E4,5.395E3,1.6781E4,1.933E4,1.4791E4,1.627E3,3.768E3,1.2887E4,3.894E3,7.883E3,1.1447E4,5.021E3,9.77E3,8.3E1,1.544E3,2.606E3,1.162E3,5.027E3,7.86E3,3.051E3,8.43E2,2.118E3,5.765E3,2.902E3,8.545E3,3.876E3,1.145E3,3.53E3,6.24E3,2.5E1,5.8E1,1.16E3,3.84E2,1.069E3,1.537E3,4.2E2,7.42E2,9.14E2,4.113E3,2.314E3,5.546E3,1.3E3,1.751E3,4.16E2,4.27E2,4.37E2,1.681E3,2.59E2,5.506E3,1.681E3,1.221E3,1.061E3,7.484E3,1.199E3,2.677E3,5.61E2,5.84E2,2.387E3,1.143E3,5.24E3,1E3,5E0,2E1,1.7E1,4.1E1,2.11E2,9.49E2,2.57E2,1.27E2,4.58E2,6.11E2,2.28E2,1.309E3,3.12E2,1.08E2,4.67E2,2.75E2,4.57E2,4.57E2,9.96E2,3.117E3,1.005E3,1.309E3,2.573E3,2.973E3,4.1E2,8.9E2,5.48E2,1.203E3,3.11E2,1.05E2,4.22E2,5E0,6.2E1,3.75E2,1.131E3,5.5E2,1.31E2,1.28E2,2.333E3,3.173E3,6.1E2,1.071E3,4.4E2,7.81E2,2.89E2,7.72E2,3.772E3,3.712E3,3.24E2,8.75E2,2.29E3,3.87E2,3.5E2,2.11E2,1.73E2,4.11E2,1.466E3,9.21E2,2.58E2,8.85E2,2.437E3,2.803E3,